{"learner":{"attributes":{"scikit_learn":"{\"_estimator_type\": \"regressor\"}"},"feature_names":["MYCT","MMIN","MMAX","CACH","CHMIN","CHMAX","ERP"],"feature_types":["int","int","int","int","int","int","int"],"gradient_booster":{"model":{"cats":{"enc":[],"feature_segments":[],"sorted_idx":[]},"gbtree_model_param":{"num_parallel_tree":"1","num_trees":"200"},"iteration_indptr":[0,1,2,3,4,5,6,7,8,9,10,11,12,13,14,15,16,17,18,19,20,21,22,23,24,25,26,27,28,29,30,31,32,33,34,35,36,37,38,39,40,41,42,43,44,45,46,47,48,49,50,51,52,53,54,55,56,57,58,59,60,61,62,63,64,65,66,67,68,69,70,71,72,73,74,75,76,77,78,79,80,81,82,83,84,85,86,87,88,89,90,91,92,93,94,95,96,97,98,99,100,101,102,103,104,105,106,107,108,109,110,111,112,113,114,115,116,117,118,119,120,121,122,123,124,125,126,127,128,129,130,131,132,133,134,135,136,137,138,139,140,141,142,143,144,145,146,147,148,149,150,151,152,153,154,155,156,157,158,159,160,161,162,163,164,165,166,167,168,169,170,171,172,173,174,175,176,177,178,179,180,181,182,183,184,185,186,187,188,189,190,191,192,193,194,195,196,197,198,199,200],"tree_info":[0,0,0,0,0,0,0,0,0,0,0,0,0,0,0,0,0,0,0,0,0,0,0,0,0,0,0,0,0,0,0,0,0,0,0,0,0,0,0,0,0,0,0,0,0,0,0,0,0,0,0,0,0,0,0,0,0,0,0,0,0,0,0,0,0,0,0,0,0,0,0,0,0,0,0,0,0,0,0,0,0,0,0,0,0,0,0,0,0,0,0,0,0,0,0,0,0,0,0,0,0,0,0,0,0,0,0,0,0,0,0,0,0,0,0,0,0,0,0,0,0,0,0,0,0,0,0,0,0,0,0,0,0,0,0,0,0,0,0,0,0,0,0,0,0,0,0,0,0,0,0,0,0,0,0,0,0,0,0,0,0,0,0,0,0,0,0,0,0,0,0,0,0,0,0,0,0,0,0,0,0,0,0,0,0,0,0,0,0,0,0,0,0,0,0,0,0,0,0,0],"trees":[{"base_weights":[-1.7256964E-6,-2.6914616E1,3.8659174E2,-5.5937603E1,8.471602E1,1.0927546E1,4.033958E1,-7.093709E0,-3.008558E1,3.858544E1,1.0923895E2,-3.220021E1,1.2367264E1,5.393413E1,3.2407165E0,1.2786869E2,6.2982033E1,-3.328357E1,8.275448E-1,-3.724552E-1,2.2275448E0,3.0040717E0,6.704072E0,1.603393E0,-1.0632736E1,6.1240716E0,1.48395815E1,3.2754478E-1,7.1043625E1,-3.6068864E0,-1.5892967E0,-1.2724552E0,-3.2245523E-1,2.1367264E0,8.664072E0],"categories":[],"categories_nodes":[],"categories_segments":[],"categories_sizes":[],"default_left":[0,0,0,0,0,0,0,0,0,0,0,0,0,0,0,0,0,0,0,0,0,0,0,0,0,0,0,0,0,0,0,0,0,0,0],"id":0,"left_children":[1,3,5,7,9,-1,-1,-1,11,13,15,17,19,21,23,25,27,29,-1,-1,-1,-1,-1,-1,31,-1,-1,-1,33,-1,-1,-1,-1,-1,-1],"loss_changes":[1.7584395E6,5.1663584E5,7.179125E3,4.672447E4,3.3116453E4,0E0,0E0,0E0,4.707289E3,6.8776523E3,1.0043391E4,2.2925156E3,5.612881E2,8.0449805E2,1.0579148E3,1.0059672E4,3.6179434E3,1.6064688E3,0E0,0E0,0E0,0E0,0E0,0E0,5.458679E0,0E0,0E0,0E0,3.572371E3,0E0,0E0,0E0,0E0,0E0,0E0],"parents":[2147483647,0,0,1,1,2,2,3,3,4,4,8,8,9,9,10,10,11,11,12,12,13,13,14,14,15,15,16,16,17,17,24,24,28,28],"right_children":[2,4,6,8,10,-1,-1,-1,12,14,16,18,20,22,24,26,28,30,-1,-1,-1,-1,-1,-1,32,-1,-1,-1,34,-1,-1,-1,-1,-1,-1],"split_conditions":[2.9E2,1.02E2,3.5E2,4.2E1,7E0,1.0927546E1,4.033958E1,-7.093709E0,4.8E1,5E0,5E1,1.6E1,6.4E1,2.4E1,5.6E1,2E1,5.7E1,8.1E1,8.275448E-1,-3.724552E-1,2.2275448E0,3.0040717E0,6.704072E0,1.603393E0,2.3E3,6.1240716E0,1.48395815E1,3.2754478E-1,1.2E1,-3.6068864E0,-1.5892967E0,-1.2724552E0,-3.2245523E-1,2.1367264E0,8.664072E0],"split_indices":[6,6,6,6,4,0,0,0,3,4,0,4,0,5,0,5,0,6,0,0,0,0,0,0,1,0,0,0,4,0,0,0,0,0,0],"split_type":[0,0,0,0,0,0,0,0,0,0,0,0,0,0,0,0,0,0,0,0,0,0,0,0,0,0,0,0,0,0,0,0,0,0,0],"sum_hessian":[1.67E2,1.57E2,1E1,1.25E2,3.2E1,1E0,9E0,7.8E1,4.7E1,1.2E1,2E1,4.5E1,2E0,8E0,4E0,1.3E1,7E0,4.4E1,1E0,1E0,1E0,4E0,4E0,2E0,2E0,4E0,9E0,1E0,6E0,3.7E1,7E0,1E0,1E0,2E0,4E0],"tree_param":{"num_deleted":"0","num_feature":"7","num_nodes":"35","size_leaf_vector":"1"}},{"base_weights":[4.968346E-1,-2.4019348E1,3.525932E2,-5.042009E1,7.7511345E1,2.3309713E1,4.4936905E1,-6.3933177E0,-2.7129389E1,3.547433E1,9.984324E1,-3.2281292E1,-8.983573E0,4.96194E1,2.9183412E0,1.16579216E2,5.8074875E1,1.0700951E-1,-3.3237442E1,-2.1141243E1,1.2265416E1,2.7637458E0,6.167746E0,1.4965001E0,-1.01011E1,5.634146E0,1.3504018E1,3.1116754E-1,6.548223E1,-3.433398E0,-1.5881662E0,-2.6041105E0,6.578892E-1,1.8296722E0,-5.929905E-1,-1.2088326E0,-3.063324E-1,1.994278E0,7.970946E0],"categories":[],"categories_nodes":[],"categories_segments":[],"categories_sizes":[],"default_left":[0,0,0,0,0,0,0,0,0,0,0,0,0,0,0,0,0,0,0,0,0,0,0,0,0,0,0,0,0,0,0,0,0,0,0,0,0,0,0],"id":1,"left_children":[1,3,5,7,9,-1,-1,-1,11,13,15,17,19,21,23,25,27,-1,29,31,33,-1,-1,-1,35,-1,-1,-1,37,-1,-1,-1,-1,-1,-1,-1,-1,-1,-1],"loss_changes":[1.4586548E6,4.2742484E5,2.2461125E4,3.7921406E4,2.7437422E4,0E0,0E0,0E0,4.197301E3,5.8417793E3,7.9094062E3,1.2154609E3,3.359365E3,6.809297E2,9.353669E2,7.9602812E3,3.0533008E3,0E0,1.3984375E2,1.2579194E3,6.5720557E2,0E0,0E0,0E0,4.926483E0,0E0,0E0,0E0,2.94567E3,0E0,0E0,0E0,0E0,0E0,0E0,0E0,0E0,0E0,0E0],"parents":[2147483647,0,0,1,1,2,2,3,3,4,4,8,8,9,9,10,10,11,11,12,12,13,13,14,14,15,15,16,16,18,18,19,19,20,20,24,24,28,28],"right_children":[2,4,6,8,10,-1,-1,-1,12,14,16,18,20,22,24,26,28,-1,30,32,34,-1,-1,-1,36,-1,-1,-1,38,-1,-1,-1,-1,-1,-1,-1,-1,-1,-1],"split_conditions":[2.9E2,1.02E2,4.26E2,4.2E1,7E0,2.3309713E1,4.4936905E1,-6.3933177E0,3.2E1,5E0,5E1,2.3E1,7.2E1,2.4E1,5.6E1,2E1,5.7E1,1.0700951E-1,2.6E1,1.43E2,1.6E4,2.7637458E0,6.167746E0,1.4965001E0,2.3E3,5.634146E0,1.3504018E1,3.1116754E-1,1.2E1,-3.433398E0,-1.5881662E0,-2.6041105E0,6.578892E-1,1.8296722E0,-5.929905E-1,-1.2088326E0,-3.063324E-1,1.994278E0,7.970946E0],"split_indices":[6,6,6,6,4,0,0,0,3,4,0,0,6,5,0,5,0,0,5,0,2,0,0,0,1,0,0,0,4,0,0,0,0,0,0,0,0,0,0],"split_type":[0,0,0,0,0,0,0,0,0,0,0,0,0,0,0,0,0,0,0,0,0,0,0,0,0,0,0,0,0,0,0,0,0,0,0,0,0,0,0],"sum_hessian":[1.67E2,1.57E2,1E1,1.25E2,3.2E1,6E0,4E0,7.8E1,4.7E1,1.2E1,2E1,3.6E1,1.1E1,8E0,4E0,1.3E1,7E0,1E0,3.5E1,7E0,4E0,4E0,4E0,2E0,2E0,4E0,9E0,1E0,6E0,3.2E1,3E0,6E0,1E0,3E0,1E0,1E0,1E0,2E0,4E0],"tree_param":{"num_deleted":"0","num_feature":"7","num_nodes":"39","size_leaf_vector":"1"}},{"base_weights":[1.0099887E0,-2.4615734E1,2.846512E2,-4.5473457E1,6.380722E1,1.9180194E2,4.1341953E1,-5.7620783E0,-2.4533619E1,1.0871503E1,7.39595E1,1.7391537E0,2.0924849E1,-2.6383368E1,1.2007045E1,2.3504288E0,-9.596044E0,9.138515E1,5.3740417E1,-2.9447474E1,-1.2407838E1,-2.2362709E-1,2.0246837E0,-1.148391E0,-2.9101562E-1,5.1834145E0,1.0468139E1,5.7877296E-1,6.125022E1,-3.592447E0,-2.2145805E0,-1.8910321E0,9.0680647E-1,2.1879716E0,7.194265E0],"categories":[],"categories_nodes":[],"categories_segments":[],"categories_sizes":[],"default_left":[0,0,0,0,0,0,0,0,0,0,0,0,0,0,0,0,0,0,0,0,0,0,0,0,0,0,0,0,0,0,0,0,0,0,0],"id":2,"left_children":[1,3,5,7,9,11,-1,-1,13,15,17,-1,-1,19,21,-1,23,25,27,29,31,-1,-1,-1,-1,-1,-1,-1,33,-1,-1,-1,-1,-1,-1],"loss_changes":[1.2281169E6,2.8876822E5,8.8089875E4,3.0636078E4,1.53185E4,2.6789469E4,0E0,0E0,3.5611562E3,1.7769209E3,3.8971875E3,0E0,0E0,1.6044551E3,3.9736337E2,0E0,4.4461975E0,8.844844E2,4.6871133E3,9.5425977E2,1.5679471E3,0E0,0E0,0E0,0E0,0E0,0E0,0E0,3.4775078E3,0E0,0E0,0E0,0E0,0E0,0E0],"parents":[2147483647,0,0,1,1,2,2,3,3,4,4,5,5,8,8,9,9,10,10,13,13,14,14,16,16,17,17,18,18,19,19,20,20,28,28],"right_children":[2,4,6,8,10,12,-1,-1,14,16,18,-1,-1,20,22,-1,24,26,28,30,32,-1,-1,-1,-1,-1,-1,-1,34,-1,-1,-1,-1,-1,-1],"split_conditions":[2.66E2,1.02E2,4.26E2,4.2E1,1.3E1,3.2E4,4.1341953E1,-5.7620783E0,4.8E1,5.6E1,5E1,1.7391537E0,2.0924849E1,6E0,6.4E1,2.3504288E0,2.3E3,2E1,5.7E1,1.6E1,3.2E1,-2.2362709E-1,2.0246837E0,-1.148391E0,-2.9101562E-1,5.1834145E0,1.0468139E1,5.7877296E-1,1.26E2,-3.592447E0,-2.2145805E0,-1.8910321E0,9.0680647E-1,2.1879716E0,7.194265E0],"split_indices":[6,6,6,6,5,2,0,0,3,0,0,0,0,4,0,0,1,5,0,3,3,0,0,0,0,0,0,0,6,0,0,0,0,0,0],"split_type":[0,0,0,0,0,0,0,0,0,0,0,0,0,0,0,0,0,0,0,0,0,0,0,0,0,0,0,0,0,0,0,0,0,0,0],"sum_hessian":[1.67E2,1.54E2,1.3E1,1.25E2,2.9E1,9E0,4E0,7.8E1,4.7E1,5E0,2.4E1,1E0,8E0,4.5E1,2E0,3E0,2E0,1.1E1,1.3E1,3.6E1,9E0,1E0,1E0,1E0,1E0,4E0,7E0,2E0,1.1E1,1.7E1,1.9E1,7E0,2E0,3E0,8E0],"tree_param":{"num_deleted":"0","num_feature":"7","num_nodes":"35","size_leaf_vector":"1"}},{"base_weights":[1.3838533E0,-1.921212E1,2.9709113E2,-4.1011448E1,6.460386E1,2.1490416E1,4.4462166E1,-5.1931644E1,-2.2184223E1,2.9620586E1,8.318379E1,-5.87697E0,-4.602553E0,-2.3892668E1,1.14066925E1,4.149373E1,2.324817E0,9.6584E1,4.933546E1,-2.6659676E1,-1.1265478E1,-2.1244584E-1,1.9234498E0,2.2699604E0,5.1989105E1,1.2990936E0,-9.116241E0,4.7687416E0,1.1137389E2,2.666706E-1,5.5621468E1,-3.1363509E0,-1.766982E0,3.0584672E-1,-2.132452E0,1.4745553E0,5.7613606E0,-1.0909714E0,-2.7646485E-1,1.3229706E1,6.3991323E0,1.7154611E0,6.7577286E0],"categories":[],"categories_nodes":[],"categories_segments":[],"categories_sizes":[],"default_left":[0,0,0,0,0,0,0,0,0,0,0,0,0,0,0,0,0,0,0,0,0,0,0,0,0,0,0,0,0,0,0,0,0,0,0,0,0,0,0,0,0,0,0],"id":3,"left_children":[1,3,5,7,9,-1,-1,11,13,15,17,-1,-1,19,21,23,25,27,29,31,33,-1,-1,-1,35,-1,37,-1,39,-1,41,-1,-1,-1,-1,-1,-1,-1,-1,-1,-1,-1,-1],"loss_changes":[1.0288915E6,2.9133634E5,3.7824875E4,2.475314E4,1.898561E4,0E0,0E0,4.8560938E2,3.0271758E3,4.116659E3,4.760047E3,0E0,0E0,1.3068828E3,3.5862054E2,5.9513184E2,7.28587E2,4.8133203E3,2.1985547E3,1.0104238E3,1.5060718E3,0E0,0E0,0E0,1.9783691E2,0E0,4.0126953E0,0E0,1.4480703E3,0E0,2.0600566E3,0E0,0E0,0E0,0E0,0E0,0E0,0E0,0E0,0E0,0E0,0E0,0E0],"parents":[2147483647,0,0,1,1,2,2,3,3,4,4,7,7,8,8,9,9,10,10,13,13,14,14,15,15,16,16,17,17,18,18,19,19,20,20,24,24,26,26,28,28,30,30],"right_children":[2,4,6,8,10,-1,-1,12,14,16,18,-1,-1,20,22,24,26,28,30,32,34,-1,-1,-1,36,-1,38,-1,40,-1,42,-1,-1,-1,-1,-1,-1,-1,-1,-1,-1,-1,-1],"split_conditions":[2.9E2,1.02E2,6.4E4,4.2E1,7E0,2.1490416E1,4.4462166E1,5E0,4.8E1,5E0,5E1,-5.87697E0,-4.602553E0,6E0,6.4E1,2.4E1,5.6E1,2E1,5.7E1,1.16E2,1.3E1,-2.1244584E-1,1.9234498E0,2.2699604E0,1.16E2,1.2990936E0,2.3E3,4.7687416E0,2.6E1,2.666706E-1,1.2E1,-3.1363509E0,-1.766982E0,3.0584672E-1,-2.132452E0,1.4745553E0,5.7613606E0,-1.0909714E0,-2.7646485E-1,1.3229706E1,6.3991323E0,1.7154611E0,6.7577286E0],"split_indices":[6,6,2,6,4,0,0,5,3,4,0,0,0,4,0,5,0,5,0,0,5,0,0,0,6,0,1,0,5,0,4,0,0,0,0,0,0,0,0,0,0,0,0],"split_type":[0,0,0,0,0,0,0,0,0,0,0,0,0,0,0,0,0,0,0,0,0,0,0,0,0,0,0,0,0,0,0,0,0,0,0,0,0,0,0,0,0,0,0],"sum_hessian":[1.67E2,1.57E2,1E1,1.25E2,3.2E1,8E0,2E0,7.8E1,4.7E1,1.2E1,2E1,3.2E1,4.6E1,4.5E1,2E0,8E0,4E0,1.3E1,7E0,3.6E1,9E0,1E0,1E0,4E0,4E0,2E0,2E0,4E0,9E0,1E0,6E0,2.2E1,1.4E1,4E0,5E0,1E0,3E0,1E0,1E0,5E0,4E0,2E0,4E0],"tree_param":{"num_deleted":"0","num_feature":"7","num_nodes":"43","size_leaf_vector":"1"}},{"base_weights":[1.7992132E0,-1.7119537E1,2.7337772E2,-3.7033306E1,5.9433624E1,1.9580158E1,4.1498024E1,-4.7921023E0,-2.1628925E1,2.7384495E1,7.644339E1,-2.5583237E1,-5.656899E0,3.8400566E1,2.0786667E0,9.0680504E1,4.738496E1,1.8091813E-1,-2.6278513E1,-1.5716204E1,1.1569368E1,2.088364E0,4.823738E1,1.2124873E0,-8.660428E0,4.387243E0,1.06609375E2,6.2582284E-1,5.1743523E1,-2.753815E0,-1.1449578E0,-2.0315871E0,8.24073E-1,1.5940684E0,-2.957947E-1,2.6865861E0,6.6861725E0,-1.0364227E0,-2.6264152E-1,1.3302487E1,5.887201E0,2.2525396E0,5.7728667E0],"categories":[],"categories_nodes":[],"categories_segments":[],"categories_sizes":[],"default_left":[0,0,0,0,0,0,0,0,0,0,0,0,0,0,0,0,0,0,0,0,0,0,0,0,0,0,0,0,0,0,0,0,0,0,0,0,0,0,0,0,0,0,0],"id":4,"left_children":[1,3,5,7,9,-1,-1,-1,11,13,15,17,19,21,23,25,27,-1,29,31,33,-1,35,-1,37,-1,39,-1,41,-1,-1,-1,-1,-1,-1,-1,-1,-1,-1,-1,-1,-1,-1],"loss_changes":[8.678516E5,2.4306603E5,3.9581E4,2.0096047E4,1.5896531E4,0E0,0E0,0E0,3.2658281E3,3.5441982E3,4.3909688E3,8.664922E2,2.2612375E3,5.434258E2,6.4444244E2,5.015586E3,1.289459E3,0E0,4.6922266E2,1.048969E3,3.6466907E2,0E0,1.9385352E2,0E0,3.6214752E0,0E0,3.5176094E3,0E0,9.8634766E1,0E0,0E0,0E0,0E0,0E0,0E0,0E0,0E0,0E0,0E0,0E0,0E0,0E0,0E0],"parents":[2147483647,0,0,1,1,2,2,3,3,4,4,8,8,9,9,10,10,11,11,12,12,13,13,14,14,15,15,16,16,18,18,19,19,20,20,22,22,24,24,26,26,28,28],"right_children":[2,4,6,8,10,-1,-1,-1,12,14,16,18,20,22,24,26,28,-1,30,32,34,-1,36,-1,38,-1,40,-1,42,-1,-1,-1,-1,-1,-1,-1,-1,-1,-1,-1,-1,-1,-1],"split_conditions":[2.9E2,1.02E2,6.4E4,3.8E1,7E0,1.9580158E1,4.1498024E1,-4.7921023E0,3.2E1,5E0,4.8E1,2.3E1,7.2E1,2.4E1,5.6E1,2E1,6E3,1.8091813E-1,2.6E1,1.43E2,1.6E4,2.088364E0,6.5E1,1.2124873E0,2.3E3,4.387243E0,2.6E1,6.2582284E-1,5.7E1,-2.753815E0,-1.1449578E0,-2.0315871E0,8.24073E-1,1.5940684E0,-2.957947E-1,2.6865861E0,6.6861725E0,-1.0364227E0,-2.6264152E-1,1.3302487E1,5.887201E0,2.2525396E0,5.7728667E0],"split_indices":[6,6,2,6,4,0,0,0,3,4,0,0,6,5,0,5,2,0,5,0,2,0,3,0,1,0,5,0,0,0,0,0,0,0,0,0,0,0,0,0,0,0,0],"split_type":[0,0,0,0,0,0,0,0,0,0,0,0,0,0,0,0,0,0,0,0,0,0,0,0,0,0,0,0,0,0,0,0,0,0,0,0,0,0,0,0,0,0,0],"sum_hessian":[1.67E2,1.57E2,1E1,1.25E2,3.2E1,8E0,2E0,7.2E1,5.3E1,1.2E1,2E1,4.2E1,1.1E1,8E0,4E0,1.2E1,8E0,1E0,4.1E1,7E0,4E0,4E0,4E0,2E0,2E0,4E0,8E0,1E0,7E0,3.7E1,4E0,6E0,1E0,3E0,1E0,3E0,1E0,1E0,1E0,4E0,4E0,2E0,5E0],"tree_param":{"num_deleted":"0","num_feature":"7","num_nodes":"43","size_leaf_vector":"1"}},{"base_weights":[2.1922762E0,-1.5184906E1,2.515925E2,-3.3396797E1,5.4811554E1,1.7839699E1,3.8731487E1,-4.100407E1,-1.5375334E1,2.552101E1,7.033372E1,-4.319457E1,-2.8447178E1,2.6163278E0,-1.7156961E1,3.583397E1,1.8534851E0,8.3426056E1,4.3607708E1,-4.8423934E0,-3.793204E0,-3.0615482E1,-8.8460314E-1,-1.902531E1,1.0982198E1,1.9212948E0,4.5288193E1,1.1316549E0,-8.2274065E0,4.036263E1,9.808063E1,5.9453166E-1,4.7572342E1,-5.4218143E-1,-3.2136395E0,-1.9955326E0,6.762627E-1,-1.0024414E-1,1.7475739E0,2.4850924E0,6.351864E0,-9.846016E-1,-2.4950944E-1,4.930219E0,1.7968857E0,1.2238288E1,5.4162245E0,2.1023705E0,5.291794E0],"categories":[],"categories_nodes":[],"categories_segments":[],"categories_sizes":[],"default_left":[0,0,0,0,0,0,0,0,0,0,0,0,0,0,0,0,0,0,0,0,0,0,0,0,0,0,0,0,0,0,0,0,0,0,0,0,0,0,0,0,0,0,0,0,0,0,0,0,0],"id":5,"left_children":[1,3,5,7,9,-1,-1,11,13,15,17,19,21,-1,23,25,27,29,31,-1,-1,33,-1,35,37,-1,39,-1,41,43,45,-1,47,-1,-1,-1,-1,-1,-1,-1,-1,-1,-1,-1,-1,-1,-1,-1,-1],"loss_changes":[7.3191106E5,2.0324386E5,4.0181125E4,1.6643422E4,1.3208547E4,0E0,0E0,1.19175E3,3.3351318E3,3.1066504E3,3.7100078E3,1.7210938E2,4.091953E2,0E0,2.2067412E3,5.441299E2,5.700865E2,4.2451953E3,1.0610254E3,0E0,0E0,3.6220508E2,0E0,9.983457E2,2.509866E2,0E0,2.8440625E2,0E0,3.2683716E0,1.1504834E2,2.9773047E3,0E0,2.2816406E1,0E0,0E0,0E0,0E0,0E0,0E0,0E0,0E0,0E0,0E0,0E0,0E0,0E0,0E0,0E0,0E0],"parents":[2147483647,0,0,1,1,2,2,3,3,4,4,7,7,8,8,9,9,10,10,11,11,12,12,14,14,15,15,16,16,17,17,18,18,21,21,23,23,24,24,26,26,28,28,29,29,30,30,32,32],"right_children":[2,4,6,8,10,-1,-1,12,14,16,18,20,22,-1,24,26,28,30,32,-1,-1,34,-1,36,38,-1,40,-1,42,44,46,-1,48,-1,-1,-1,-1,-1,-1,-1,-1,-1,-1,-1,-1,-1,-1,-1,-1],"split_conditions":[2.9E2,1.02E2,6.4E4,4.7E1,7E0,1.7839699E1,3.8731487E1,3.8E1,4E0,5E0,4.8E1,5E0,2.4E1,2.6163278E0,4.8E1,2.4E1,5.6E1,2E1,6E3,-4.8423934E0,-3.793204E0,7.68E2,-8.8460314E-1,1.6E1,6.4E1,1.9212948E0,6.5E1,1.1316549E0,2.3E3,1.28E2,2.6E1,5.9453166E-1,5.7E1,-5.4218143E-1,-3.2136395E0,-1.9955326E0,6.762627E-1,-1.0024414E-1,1.7475739E0,2.4850924E0,6.351864E0,-9.846016E-1,-2.4950944E-1,4.930219E0,1.7968857E0,1.2238288E1,5.4162245E0,2.1023705E0,5.291794E0],"split_indices":[6,6,2,6,4,0,0,6,5,4,0,5,5,0,3,5,0,5,2,0,0,1,0,4,0,0,3,0,1,6,5,0,0,0,0,0,0,0,0,0,0,0,0,0,0,0,0,0,0],"split_type":[0,0,0,0,0,0,0,0,0,0,0,0,0,0,0,0,0,0,0,0,0,0,0,0,0,0,0,0,0,0,0,0,0,0,0,0,0,0,0,0,0,0,0,0,0,0,0,0,0],"sum_hessian":[1.67E2,1.57E2,1E1,1.25E2,3.2E1,8E0,2E0,8.7E1,3.8E1,1.2E1,2E1,7.2E1,1.5E1,1E0,3.7E1,8E0,4E0,1.2E1,8E0,3.2E1,4E1,1.3E1,2E0,3.5E1,2E0,4E0,4E0,2E0,2E0,4E0,8E0,1E0,7E0,1E0,1.2E1,3.4E1,1E0,1E0,1E0,3E0,1E0,1E0,1E0,2E0,2E0,4E0,4E0,2E0,5E0],"tree_param":{"num_deleted":"0","num_feature":"7","num_nodes":"49","size_leaf_vector":"1"}},{"base_weights":[2.504392E0,-1.271774E1,2.4428586E2,-3.0139114E1,5.2217876E1,1.6979712E1,3.614939E1,-3.7054527E1,-1.3762306E1,2.3788586E1,6.664346E1,-4.3533115E1,-3.2575104E1,2.4855115E0,-1.5432635E1,3.344593E1,1.6476471E0,7.8924644E1,4.013457E1,-4.525188E0,-1.9759104E0,-3.3334858E0,-1.8158632E1,-1.9965816E1,-3.9469273E0,2.1937666E0,4.9149906E1,1.0562114E0,-7.816035E0,3.767179E1,9.165861E1,1.1915967E0,4.6494747E1,-8.256294E-1,-2.2008092E0,2.716488E-1,-2.0942693E0,-1.2786347E0,1.098553E0,1.3382152E0,6.034271E0,-9.353714E-1,-2.3703384E-1,4.601538E0,1.6770935E0,1.1259226E1,5.893747E0,1.9622124E0,5.3319373E0],"categories":[],"categories_nodes":[],"categories_segments":[],"categories_sizes":[],"default_left":[0,0,0,0,0,0,0,0,0,0,0,0,0,0,0,0,0,0,0,0,0,0,0,0,0,0,0,0,0,0,0,0,0,0,0,0,0,0,0,0,0,0,0,0,0,0,0,0,0],"id":6,"left_children":[1,3,5,7,9,-1,-1,11,13,15,17,19,21,-1,23,25,27,29,31,-1,-1,-1,33,35,37,-1,39,-1,41,43,45,-1,47,-1,-1,-1,-1,-1,-1,-1,-1,-1,-1,-1,-1,-1,-1,-1,-1],"loss_changes":[6.2141894E5,1.8144534E5,2.5926188E4,1.3759852E4,1.2358359E4,0E0,0E0,1.1356953E3,2.89923E3,2.7245874E3,3.9947188E3,4.543086E2,8.0546875E0,0E0,1.8997334E3,5.482949E2,5.0437222E2,3.9014375E3,1.061248E3,0E0,0E0,0E0,8.888062E0,6.5515234E2,1.7243956E3,0E0,3.935088E2,0E0,2.9497528E0,1.00220215E2,2.1382812E2,0E0,2.3753027E2,0E0,0E0,0E0,0E0,0E0,0E0,0E0,0E0,0E0,0E0,0E0,0E0,0E0,0E0,0E0,0E0],"parents":[2147483647,0,0,1,1,2,2,3,3,4,4,7,7,8,8,9,9,10,10,11,11,12,12,14,14,15,15,16,16,17,17,18,18,22,22,23,23,24,24,26,26,28,28,29,29,30,30,32,32],"right_children":[2,4,6,8,10,-1,-1,12,14,16,18,20,22,-1,24,26,28,30,32,-1,-1,-1,34,36,38,-1,40,-1,42,44,46,-1,48,-1,-1,-1,-1,-1,-1,-1,-1,-1,-1,-1,-1,-1,-1,-1,-1],"split_conditions":[3.5E2,1.02E2,6.4E4,4.7E1,7E0,1.6979712E1,3.614939E1,2.5E1,4E0,5E0,4.8E1,4E0,3.8E1,2.4855115E0,3.2E1,1.12E2,5.6E1,2E1,1.26E2,-4.525188E0,-1.9759104E0,-3.3334858E0,1.5E2,2.3E1,7.2E1,2.1937666E0,4E1,1.0562114E0,2.3E3,1.28E2,2.6E1,1.1915967E0,5.7E1,-8.256294E-1,-2.2008092E0,2.716488E-1,-2.0942693E0,-1.2786347E0,1.098553E0,1.3382152E0,6.034271E0,-9.353714E-1,-2.3703384E-1,4.601538E0,1.6770935E0,1.1259226E1,5.893747E0,1.9622124E0,5.3319373E0],"split_indices":[6,6,2,6,4,0,0,6,5,4,0,4,5,0,3,3,0,5,6,0,0,0,0,0,6,0,0,0,1,6,5,0,0,0,0,0,0,0,0,0,0,0,0,0,0,0,0,0,0],"split_type":[0,0,0,0,0,0,0,0,0,0,0,0,0,0,0,0,0,0,0,0,0,0,0,0,0,0,0,0,0,0,0,0,0,0,0,0,0,0,0,0,0,0,0,0,0,0,0,0,0],"sum_hessian":[1.67E2,1.58E2,9E0,1.25E2,3.3E1,7E0,2E0,8.7E1,3.8E1,1.2E1,2.1E1,3.2E1,5.5E1,1E0,3.7E1,8E0,4E0,1.3E1,8E0,2.9E1,3E0,5.1E1,4E0,2.6E1,1.1E1,6E0,2E0,2E0,2E0,4E0,9E0,2E0,6E0,2E0,2E0,1E0,2.5E1,7E0,4E0,1E0,1E0,1E0,1E0,2E0,2E0,4E0,5E0,2E0,4E0],"tree_param":{"num_deleted":"0","num_feature":"7","num_nodes":"49","size_leaf_vector":"1"}},{"base_weights":[2.7427516E0,-1.1263644E1,2.2517018E2,-2.7223444E1,4.8212776E1,1.6540115E1,3.815457E1,-3.4635223E1,-1.4457732E1,2.2136654E1,6.14299E1,-3.9737453E0,-3.031589E1,-1.5770662E1,1.04931135E1,9.750917E0,4.000365E1,7.160496E1,3.4672928E1,-3.2663524E0,-2.2449064E1,-2.0605148E1,-1.1259321E1,-3.1300355E-2,1.6052674E0,1.615309E1,-2.2900696E0,2.134178E0,5.732557E0,4.9613194E0,9.6323746E1,-6.251907E-2,3.980483E1,-3.4524357E-1,-2.5327468E0,-2.3195226E0,-3.798519E-1,-1.5396205E0,-2.680874E-3,3.0863914E-1,1.8149151E0,-7.4252343E-1,6.5577126E-1,1.0555994E1,2.507141E0,1.112157E0,4.905382E0],"categories":[],"categories_nodes":[],"categories_segments":[],"categories_sizes":[],"default_left":[0,0,0,0,0,0,0,0,0,0,0,0,0,0,0,0,0,0,0,0,0,0,0,0,0,0,0,0,0,0,0,0,0,0,0,0,0,0,0,0,0,0,0,0,0,0,0],"id":7,"left_children":[1,3,5,7,9,-1,-1,11,13,15,17,-1,19,21,23,25,27,29,31,-1,33,35,37,-1,-1,39,41,-1,-1,-1,43,-1,45,-1,-1,-1,-1,-1,-1,-1,-1,-1,-1,-1,-1,-1,-1],"loss_changes":[5.2592456E5,1.5224034E5,3.0356031E4,1.1420961E4,1.0358297E4,0E0,0E0,5.3633594E2,1.7379033E3,2.4867744E3,3.5068203E3,0E0,1.347539E2,7.7125977E2,1.8525632E2,7.307879E2,3.9286816E2,3.3752266E3,1.4740566E3,0E0,6.7807715E2,8.2603125E2,1.2077444E3,0E0,0E0,1.004762E2,2.3043184E2,0E0,0E0,0E0,1.3020625E3,0E0,1.3114834E3,0E0,0E0,0E0,0E0,0E0,0E0,0E0,0E0,0E0,0E0,0E0,0E0,0E0,0E0],"parents":[2147483647,0,0,1,1,2,2,3,3,4,4,7,7,8,8,9,9,10,10,12,12,13,13,14,14,15,15,16,16,17,17,18,18,20,20,21,21,22,22,25,25,26,26,30,30,32,32],"right_children":[2,4,6,8,10,-1,-1,12,14,16,18,-1,20,22,24,26,28,30,32,-1,34,36,38,-1,-1,40,42,-1,-1,-1,44,-1,46,-1,-1,-1,-1,-1,-1,-1,-1,-1,-1,-1,-1,-1,-1],"split_conditions":[3.5E2,1.02E2,1.28E2,4.2E1,7E0,1.6540115E1,3.815457E1,5E0,4.8E1,2.8E1,5E1,-3.9737453E0,2.5E2,1.6E1,6.4E1,5.6E1,6.5E1,4.8E1,5.7E1,-3.2663524E0,6E0,4E0,1.24E2,-3.1300355E-2,1.6052674E0,2.3E3,6.4E1,2.134178E0,5.732557E0,4.9613194E0,1.6E1,-6.251907E-2,1.2E1,-3.4524357E-1,-2.5327468E0,-2.3195226E0,-3.798519E-1,-1.5396205E0,-2.680874E-3,3.0863914E-1,1.8149151E0,-7.4252343E-1,6.5577126E-1,1.0555994E1,2.507141E0,1.112157E0,4.905382E0],"split_indices":[6,6,5,6,4,0,0,5,3,5,0,0,0,3,0,0,3,3,0,0,5,4,0,0,0,1,0,0,0,0,4,0,4,0,0,0,0,0,0,0,0,0,0,0,0,0,0],"split_type":[0,0,0,0,0,0,0,0,0,0,0,0,0,0,0,0,0,0,0,0,0,0,0,0,0,0,0,0,0,0,0,0,0,0,0,0,0,0,0,0,0,0,0,0,0,0,0],"sum_hessian":[1.67E2,1.58E2,9E0,1.25E2,3.3E1,8E0,1E0,7.8E1,4.7E1,1.2E1,2.1E1,3.2E1,4.6E1,4.5E1,2E0,8E0,4E0,1.4E1,7E0,3.3E1,1.3E1,2E1,2.5E1,1E0,1E0,5E0,3E0,3E0,1E0,9E0,5E0,1E0,6E0,2E0,1.1E1,1.7E1,3E0,1.8E1,7E0,1E0,4E0,2E0,1E0,4E0,1E0,2E0,4E0],"tree_param":{"num_deleted":"0","num_feature":"7","num_nodes":"47","size_leaf_vector":"1"}},{"base_weights":[2.9196186E0,-1.0004595E1,2.0812265E2,-2.4602575E1,4.4388058E1,1.5069884E1,3.6246845E1,-3.0356102E1,-1.098942E1,2.06848E1,5.637689E1,-3.775006E0,-2.7319479E1,2.3613698E0,-1.2521441E1,9.002135E0,3.7576633E1,6.5646095E1,3.1950012E1,-6.1906546E-1,-2.7549297E1,-1.4047782E1,9.968457E0,1.4891704E1,-2.0827503E0,1.9741148E0,5.445929E0,4.5148005E0,8.886856E1,-5.9393313E-2,3.6683994E1,-3.0191324E0,-2.2979784E0,-1.4828863E0,6.6450274E-1,-2.9735183E-2,1.5250038E0,2.9320717E-1,1.6697216E0,-6.9302195E-1,6.229828E-1,9.7115135E0,2.3817842E0,1.038013E0,4.512952E0],"categories":[],"categories_nodes":[],"categories_segments":[],"categories_sizes":[],"default_left":[0,0,0,0,0,0,0,0,0,0,0,0,0,0,0,0,0,0,0,0,0,0,0,0,0,0,0,0,0,0,0,0,0,0,0,0,0,0,0,0,0,0,0,0,0],"id":8,"left_children":[1,3,5,7,9,-1,-1,11,13,15,17,-1,19,-1,21,23,25,27,29,-1,31,33,35,37,39,-1,-1,-1,41,-1,43,-1,-1,-1,-1,-1,-1,-1,-1,-1,-1,-1,-1,-1,-1],"loss_changes":[4.476329E5,1.273417E5,3.4007656E4,9.535195E3,8.495781E3,0E0,0E0,9.4452344E2,2.3631733E3,2.2271714E3,2.8837969E3,0E0,1.499336E2,0E0,1.4444697E3,6.185825E2,4.304629E2,3.128004E3,1.2542871E3,0E0,9.094141E1,6.8039795E2,1.6719373E2,8.060205E1,2.0435393E2,0E0,0E0,0E0,9.0560156E2,0E0,1.0865986E3,0E0,0E0,0E0,0E0,0E0,0E0,0E0,0E0,0E0,0E0,0E0,0E0,0E0,0E0],"parents":[2147483647,0,0,1,1,2,2,3,3,4,4,7,7,8,8,9,9,10,10,12,12,14,14,15,15,16,16,17,17,18,18,20,20,21,21,22,22,23,23,24,24,28,28,30,30],"right_children":[2,4,6,8,10,-1,-1,12,14,16,18,-1,20,-1,22,24,26,28,30,-1,32,34,36,38,40,-1,-1,-1,42,-1,44,-1,-1,-1,-1,-1,-1,-1,-1,-1,-1,-1,-1,-1,-1],"split_conditions":[3.5E2,1.02E2,1.28E2,4.7E1,7E0,1.5069884E1,3.6246845E1,2.62E3,4E0,2.8E1,5E1,-3.775006E0,1E0,2.3613698E0,4.8E1,5.6E1,6.5E1,4.8E1,5.7E1,-6.1906546E-1,4E0,1.6E1,6.4E1,2.3E3,6.4E1,1.9741148E0,5.445929E0,4.5148005E0,1.6E1,-5.9393313E-2,1.2E1,-3.0191324E0,-2.2979784E0,-1.4828863E0,6.6450274E-1,-2.9735183E-2,1.5250038E0,2.9320717E-1,1.6697216E0,-6.9302195E-1,6.229828E-1,9.7115135E0,2.3817842E0,1.038013E0,4.512952E0],"split_indices":[6,6,5,6,4,0,0,2,5,5,0,0,4,0,3,0,3,3,0,0,3,4,0,1,0,0,0,0,4,0,4,0,0,0,0,0,0,0,0,0,0,0,0,0,0],"split_type":[0,0,0,0,0,0,0,0,0,0,0,0,0,0,0,0,0,0,0,0,0,0,0,0,0,0,0,0,0,0,0,0,0,0,0,0,0,0,0,0,0,0,0,0,0],"sum_hessian":[1.67E2,1.58E2,9E0,1.25E2,3.3E1,8E0,1E0,8.7E1,3.8E1,1.2E1,2.1E1,2.2E1,6.5E1,1E0,3.7E1,8E0,4E0,1.4E1,7E0,1E0,6.4E1,3.5E1,2E0,5E0,3E0,3E0,1E0,9E0,5E0,1E0,6E0,3.7E1,2.7E1,3.4E1,1E0,1E0,1E0,1E0,4E0,2E0,1E0,4E0,1E0,2E0,4E0],"tree_param":{"num_deleted":"0","num_feature":"7","num_nodes":"45","size_leaf_vector":"1"}},{"base_weights":[3.0803726E0,-8.84854E0,1.9244205E2,-2.2195278E1,4.087315E1,1.3730339E1,3.44345E1,-2.7430847E1,-9.812573E0,8.200368E0,4.758159E1,-3.4139187E0,-2.4677475E1,2.2433014E0,-1.1251484E1,1.5361437E0,-6.468203E0,6.018869E1,3.0675297E1,-2.5238285E1,-1.2787922E1,-1.4950426E1,-1.9912395E0,-8.168255E-1,-1.53405E-1,4.1084685E0,8.1997246E1,1.4808222E0,3.541764E1,-2.7926826E0,-2.0718813E0,-4.477717E-1,-1.6835486E0,-5.7919496E-1,-1.7866296E0,-9.777269E-1,1.0864655E0,9.71861E0,3.4413037E0,2.785469E-1,-5.642357E-2,1.1401796E0,4.2156057E0],"categories":[],"categories_nodes":[],"categories_segments":[],"categories_sizes":[],"default_left":[0,0,0,0,0,0,0,0,0,0,0,0,0,0,0,0,0,0,0,0,0,0,0,0,0,0,0,0,0,0,0,0,0,0,0,0,0,0,0,0,0,0,0],"id":9,"left_children":[1,3,5,7,9,-1,-1,11,13,15,17,-1,19,-1,21,-1,23,25,27,29,31,33,35,-1,-1,-1,37,39,41,-1,-1,-1,-1,-1,-1,-1,-1,-1,-1,-1,-1,-1,-1],"loss_changes":[3.811945E5,1.0642314E5,3.64775E4,7.8994766E3,7.062051E3,0E0,0E0,7.829453E2,2.061947E3,8.346594E2,4.1215977E3,0E0,1.1733203E2,0E0,1.2718486E3,0E0,1.2634438E1,2.880629E3,1.8858555E3,1.7473828E2,9.27959E1,6.1755225E2,1.3073829E3,0E0,0E0,0E0,9.9202734E2,9.575897E0,1.46129E3,0E0,0E0,0E0,0E0,0E0,0E0,0E0,0E0,0E0,0E0,0E0,0E0,0E0,0E0],"parents":[2147483647,0,0,1,1,2,2,3,3,4,4,7,7,8,8,9,9,10,10,12,12,14,14,16,16,17,17,18,18,19,19,20,20,21,21,22,22,26,26,27,27,28,28],"right_children":[2,4,6,8,10,-1,-1,12,14,16,18,-1,20,-1,22,-1,24,26,28,30,32,34,36,-1,-1,-1,38,40,42,-1,-1,-1,-1,-1,-1,-1,-1,-1,-1,-1,-1,-1,-1],"split_conditions":[3.5E2,1.02E2,1.28E2,4.7E1,1.3E1,1.3730339E1,3.44345E1,2.62E3,4E0,5.6E1,5E1,-3.4139187E0,3.8E1,2.2433014E0,3.2E1,1.5361437E0,2.3E3,4.8E1,5.7E1,4E0,1.5E2,5.6E1,7.2E1,-8.168255E-1,-1.53405E-1,4.1084685E0,3.8E1,5.6E1,1.26E2,-2.7926826E0,-2.0718813E0,-4.477717E-1,-1.6835486E0,-5.7919496E-1,-1.7866296E0,-9.777269E-1,1.0864655E0,9.71861E0,3.4413037E0,2.785469E-1,-5.642357E-2,1.1401796E0,4.2156057E0],"split_indices":[6,6,5,6,5,0,0,2,5,0,0,0,5,0,3,0,1,3,0,3,0,6,6,0,0,0,0,0,6,0,0,0,0,0,0,0,0,0,0,0,0,0,0],"split_type":[0,0,0,0,0,0,0,0,0,0,0,0,0,0,0,0,0,0,0,0,0,0,0,0,0,0,0,0,0,0,0,0,0,0,0,0,0,0,0,0,0,0,0],"sum_hessian":[1.67E2,1.58E2,9E0,1.25E2,3.3E1,8E0,1E0,8.7E1,3.8E1,6E0,2.7E1,2.2E1,6.5E1,1E0,3.7E1,4E0,2E0,1.4E1,1.3E1,6.1E1,4E0,2.6E1,1.1E1,1E0,1E0,9E0,5E0,2E0,1.1E1,3.5E1,2.6E1,2E0,2E0,7E0,1.9E1,7E0,4E0,3E0,2E0,1E0,1E0,3E0,8E0],"tree_param":{"num_deleted":"0","num_feature":"7","num_nodes":"43","size_leaf_vector":"1"}},{"base_weights":[3.136343E0,-7.881997E0,1.7801431E2,-2.028943E1,3.6655464E1,1.2509864E1,3.2712776E1,-2.621984E1,-1.1738311E1,7.6298666E0,4.3639366E1,-2.9868015E1,-2.2643995E1,-1.4303186E1,-1.7830518E0,1.3245553E0,-6.144793E0,5.532104E1,2.800619E1,-3.0314844E0,-7.784748E-1,-2.5377078E0,-1.55604E1,-1.9136423E1,-1.0251128E1,8.398362E0,-1.0255257E1,-7.759842E-1,-1.4573479E-1,3.7387059E0,7.5990845E1,1.4067816E0,3.232219E1,-3.0903373E-2,-1.8076543E0,-1.2843618E0,-2.539698E0,-1.6549574E0,-2.0486812E-1,-7.914429E-2,1.3191127E0,-1.5530274E0,1.0697422E0,8.989715E0,3.2118835E0,2.6461944E-1,-5.360222E-2,1.0546659E0,3.8408852E0],"categories":[],"categories_nodes":[],"categories_segments":[],"categories_sizes":[],"default_left":[0,0,0,0,0,0,0,0,0,0,0,0,0,0,0,0,0,0,0,0,0,0,0,0,0,0,0,0,0,0,0,0,0,0,0,0,0,0,0,0,0,0,0,0,0,0,0,0,0],"id":10,"left_children":[1,3,5,7,9,-1,-1,11,13,15,17,19,21,23,25,-1,27,29,31,-1,-1,-1,33,35,37,39,41,-1,-1,-1,43,45,47,-1,-1,-1,-1,-1,-1,-1,-1,-1,-1,-1,-1,-1,-1,-1,-1],"loss_changes":[3.251164E5,8.860641E4,3.7981156E4,6.0311797E3,6.761953E3,0E0,0E0,2.7597656E2,1.3277988E3,7.002245E2,3.5640781E3,8.963281E1,3.9888672E2,6.2638184E2,1.1212357E3,0E0,1.1402565E1,2.7193047E3,1.5617734E3,0E0,0E0,0E0,5.316582E2,3.8294678E2,1.2576621E3,2.747074E2,9.3981396E2,0E0,0E0,0E0,7.731914E2,8.642227E0,1.1853975E3,0E0,0E0,0E0,0E0,0E0,0E0,0E0,0E0,0E0,0E0,0E0,0E0,0E0,0E0,0E0,0E0],"parents":[2147483647,0,0,1,1,2,2,3,3,4,4,7,7,8,8,9,9,10,10,11,11,12,12,13,13,14,14,16,16,17,17,18,18,22,22,23,23,24,24,25,25,26,26,30,30,31,31,32,32],"right_children":[2,4,6,8,10,-1,-1,12,14,16,18,20,22,24,26,-1,28,30,32,-1,-1,-1,34,36,38,40,42,-1,-1,-1,44,46,48,-1,-1,-1,-1,-1,-1,-1,-1,-1,-1,-1,-1,-1,-1,-1,-1],"split_conditions":[3.5E2,1.01E2,1.28E2,3.8E1,1.3E1,1.2509864E1,3.2712776E1,5E0,3.2E1,5.6E1,5E1,3.5E1,2.5E2,5.7E1,8.4E1,1.3245553E0,2.3E3,4.8E1,5.7E1,-3.0314844E0,-7.784748E-1,-2.5377078E0,6E0,7E0,4.8E1,1E1,1.43E2,-7.759842E-1,-1.4573479E-1,3.7387059E0,3.8E1,5.6E1,1.26E2,-3.0903373E-2,-1.8076543E0,-1.2843618E0,-2.539698E0,-1.6549574E0,-2.0486812E-1,-7.914429E-2,1.3191127E0,-1.5530274E0,1.0697422E0,8.989715E0,3.2118835E0,2.6461944E-1,-5.360222E-2,1.0546659E0,3.8408852E0],"split_indices":[6,6,5,6,5,0,0,5,3,0,0,6,0,0,0,0,1,3,0,0,0,0,5,5,6,5,0,0,0,0,0,0,6,0,0,0,0,0,0,0,0,0,0,0,0,0,0,0,0],"split_type":[0,0,0,0,0,0,0,0,0,0,0,0,0,0,0,0,0,0,0,0,0,0,0,0,0,0,0,0,0,0,0,0,0,0,0,0,0,0,0,0,0,0,0,0,0,0,0,0,0],"sum_hessian":[1.67E2,1.58E2,9E0,1.24E2,3.4E1,8E0,1E0,7.2E1,5.2E1,7E0,2.7E1,3.2E1,4E1,4.1E1,1.1E1,5E0,2E0,1.4E1,1.3E1,3.1E1,1E0,2.7E1,1.3E1,1.7E1,2.4E1,5E0,6E0,1E0,1E0,9E0,5E0,2E0,1.1E1,2E0,1.1E1,1E1,7E0,1.3E1,1.1E1,2E0,3E0,5E0,1E0,3E0,2E0,1E0,1E0,3E0,8E0],"tree_param":{"num_deleted":"0","num_feature":"7","num_nodes":"49","size_leaf_vector":"1"}},{"base_weights":[3.141512E0,-7.0413685E0,1.6473515E2,-1.8160223E1,3.4370903E1,1.1397876E1,3.1077137E1,-2.2444511E1,-8.027466E0,1.5908483E1,4.37182E1,-2.817751E1,-2.010658E1,2.1413796E0,-9.365757E0,8.392123E0,3.8165638E1,4.7528065E1,1.4691782E1,-2.9263456E0,-1.118338E0,-2.6349351E0,-1.8378946E1,-1.0637783E1,9.020467E0,-7.3718494E-1,1.0705706E1,9.540375E-1,4.7708087E0,3.1941352E0,6.496713E1,1.7669213E0,2.8797457E-1,-2.0551E0,-1.4463441E0,-1.2742444E0,-2.90797E-1,2.459526E-2,1.3284749E0,1.2534636E0,4.8286515E-1,7.0806375E0,1.2046226E0],"categories":[],"categories_nodes":[],"categories_segments":[],"categories_sizes":[],"default_left":[0,0,0,0,0,0,0,0,0,0,0,0,0,0,0,0,0,0,0,0,0,0,0,0,0,0,0,0,0,0,0,0,0,0,0,0,0,0,0,0,0,0,0],"id":11,"left_children":[1,3,5,7,9,-1,-1,11,13,15,17,19,21,-1,23,25,27,29,31,-1,-1,-1,33,35,37,-1,39,-1,-1,-1,41,-1,-1,-1,-1,-1,-1,-1,-1,-1,-1,-1,-1],"loss_changes":[2.7760206E5,7.383686E4,3.8701375E4,5.2896914E3,5.1720195E3,0E0,0E0,6.129414E2,1.7371946E3,1.8545156E3,1.7346367E3,9.719336E1,2.2755078E2,0E0,9.8469214E2,4.801046E2,3.64312E2,3.0893984E3,8.979523E1,0E0,0E0,0E0,1.7051758E2,5.486162E2,1.08983536E2,0E0,4.6961792E1,0E0,0E0,0E0,1.6191914E3,0E0,0E0,0E0,0E0,0E0,0E0,0E0,0E0,0E0,0E0,0E0,0E0],"parents":[2147483647,0,0,1,1,2,2,3,3,4,4,7,7,8,8,9,9,10,10,11,11,12,12,14,14,15,15,16,16,17,17,18,18,22,22,23,23,24,24,26,26,30,30],"right_children":[2,4,6,8,10,-1,-1,12,14,16,18,20,22,-1,24,26,28,30,32,-1,-1,-1,34,36,38,-1,40,-1,-1,-1,42,-1,-1,-1,-1,-1,-1,-1,-1,-1,-1,-1,-1],"split_conditions":[3.5E2,1.02E2,1.28E2,4.7E1,7E0,1.1397876E1,3.1077137E1,2.62E3,4E0,1.12E2,7E1,4E0,5E2,2.1413796E0,4.8E1,1.13E2,4E1,4.8E1,5E3,-2.9263456E0,-1.118338E0,-2.6349351E0,1.85E2,6E0,6.4E1,-7.3718494E-1,2E0,9.540375E-1,4.7708087E0,3.1941352E0,5.9E1,1.7669213E0,2.8797457E-1,-2.0551E0,-1.4463441E0,-1.2742444E0,-2.90797E-1,2.459526E-2,1.3284749E0,1.2534636E0,4.8286515E-1,7.0806375E0,1.2046226E0],"split_indices":[6,6,5,6,4,0,0,2,5,3,0,4,1,0,3,6,0,3,1,0,0,0,0,4,0,0,4,0,0,0,0,0,0,0,0,0,0,0,0,0,0,0,0],"split_type":[0,0,0,0,0,0,0,0,0,0,0,0,0,0,0,0,0,0,0,0,0,0,0,0,0,0,0,0,0,0,0,0,0,0,0,0,0,0,0,0,0,0,0],"sum_hessian":[1.67E2,1.58E2,9E0,1.25E2,3.3E1,8E0,1E0,8.7E1,3.8E1,1.2E1,2.1E1,2.2E1,6.5E1,1E0,3.7E1,1E1,2E0,1.8E1,3E0,2E1,2E0,1.1E1,5.4E1,3.5E1,2E0,1E0,9E0,1E0,1E0,1.1E1,7E0,2E0,1E0,3.2E1,2.2E1,2.7E1,8E0,1E0,1E0,6E0,3E0,6E0,1E0],"tree_param":{"num_deleted":"0","num_feature":"7","num_nodes":"43","size_leaf_vector":"1"}},{"base_weights":[3.151655E0,-6.2617188E0,1.5250912E2,-1.6603184E1,3.0850992E1,1.038473E1,2.952328E1,-1.9816803E1,-5.766166E0,6.4923954E0,3.670877E1,-2.4906816E0,-1.6755259E1,-1.5691185E1,-2.0632827E0,1.1532917E0,-5.7527795E0,2.456949E1,4.8825672E1,-1.85353E1,-1.2853651E1,-1.7839571E0,-3.2623675E-2,2.0343106E0,-4.0064416E0,-7.003258E-1,-1.6259117E-1,3.1147497E0,1.1662412E1,7.7844377E0,3.2335625E1,-2.0860283E0,-1.2561383E0,-1.4962503E0,-2.2692871E-1,1.2558666E0,-5.393288E-1,1.1077627E-2,1.626091E0,1.1720423E0,4.412569E0],"categories":[],"categories_nodes":[],"categories_segments":[],"categories_sizes":[],"default_left":[0,0,0,0,0,0,0,0,0,0,0,0,0,0,0,0,0,0,0,0,0,0,0,0,0,0,0,0,0,0,0,0,0,0,0,0,0,0,0,0,0],"id":12,"left_children":[1,3,5,7,9,-1,-1,11,13,15,17,-1,19,21,23,-1,25,27,29,31,33,-1,-1,-1,35,-1,-1,-1,37,-1,39,-1,-1,-1,-1,-1,-1,-1,-1,-1,-1],"loss_changes":[2.3715586E5,6.15364E4,3.8792812E4,4.2389883E3,4.7557227E3,0E0,0E0,1.0786797E3,1.0701602E3,5.601229E2,2.918914E3,0E0,1.9928906E2,2.582589E2,1.0829043E3,0E0,4.095001E0,9.951904E2,3.7036113E3,3.0742676E2,4.7942505E2,0E0,0E0,0E0,5.731442E2,0E0,0E0,0E0,3.7003992E2,0E0,1.913374E3,0E0,0E0,0E0,0E0,0E0,0E0,0E0,0E0,0E0,0E0],"parents":[2147483647,0,0,1,1,2,2,3,3,4,4,7,7,8,8,9,9,10,10,12,12,13,13,14,14,16,16,17,17,18,18,19,19,20,20,24,24,28,28,30,30],"right_children":[2,4,6,8,10,-1,-1,12,14,16,18,-1,20,22,24,-1,26,28,30,32,34,-1,-1,-1,36,-1,-1,-1,38,-1,40,-1,-1,-1,-1,-1,-1,-1,-1,-1,-1],"split_conditions":[3.5E2,1.01E2,1.28E2,1.6E1,1.3E1,1.038473E1,2.952328E1,5E0,4.8E1,5.6E1,4.8E1,-2.4906816E0,3.8E1,1.75E2,4E0,1.1532917E0,2.3E3,5E1,3.8E1,2.5E2,2.6E1,-1.7839571E0,-3.2623675E-2,2.0343106E0,5E1,-7.003258E-1,-1.6259117E-1,3.1147497E0,5.7E1,7.7844377E0,1.51E2,-2.0860283E0,-1.2561383E0,-1.4962503E0,-2.2692871E-1,1.2558666E0,-5.393288E-1,1.1077627E-2,1.626091E0,1.1720423E0,4.412569E0],"split_indices":[6,6,5,3,5,0,0,5,6,0,3,0,6,0,5,0,1,0,0,0,5,0,0,0,6,0,0,0,0,0,6,0,0,0,0,0,0,0,0,0,0],"split_type":[0,0,0,0,0,0,0,0,0,0,0,0,0,0,0,0,0,0,0,0,0,0,0,0,0,0,0,0,0,0,0,0,0,0,0,0,0,0,0,0,0],"sum_hessian":[1.67E2,1.58E2,9E0,1.24E2,3.4E1,8E0,1E0,9.5E1,2.9E1,7E0,2.7E1,3.3E1,6.2E1,7E0,2.2E1,5E0,2E0,1.5E1,1.2E1,4E1,2.2E1,6E0,1E0,1E0,2.1E1,1E0,1E0,9E0,6E0,3E0,9E0,2.7E1,1.3E1,1.8E1,4E0,1E0,2E1,2E0,4E0,4E0,5E0],"tree_param":{"num_deleted":"0","num_feature":"7","num_nodes":"41","size_leaf_vector":"1"}},{"base_weights":[3.144214E0,-5.561398E0,1.4124902E2,-1.4824256E1,2.8929235E1,9.4616425E1,2.8047117E1,-1.9463722E1,-8.277863E0,1.4297216E1,3.730633E1,4.096932E0,1.0409142E1,-2.0253916E1,-1.1594128E1,-1.0292678E1,-3.682855E-1,1.996796E1,9.628601E-2,5.720417E1,2.3271402E1,-2.3295004E0,-1.7157068E1,-1.090765E-1,-1.2770703E0,-1.692709E1,-8.292609E0,-9.588584E0,7.5874395E0,9.729443E0,2.826059E1,-3.8736973E0,7.9881096E-1,7.7089396E0,2.9855154E0,5.407311E-1,2.5798141E1,-1.0005283E-1,-1.7590097E0,-2.109717E0,-1.554545E-1,-1.1342831E0,-6.0641345E-2,3.7424725E-3,-1.4410944E0,1.0872163E0,-6.060452E-1,1.5514029E0,-1.2264862E-1,8.138118E-1,3.8962865E0,-6.6530955E-1,-7.295329E-2,9.8955977E-1,2.999948E0],"categories":[],"categories_nodes":[],"categories_segments":[],"categories_sizes":[],"default_left":[0,0,0,0,0,0,0,0,0,0,0,0,0,0,0,0,0,0,0,0,0,0,0,0,0,0,0,0,0,0,0,0,0,0,0,0,0,0,0,0,0,0,0,0,0,0,0,0,0,0,0,0,0,0,0],"id":13,"left_children":[1,3,5,7,9,11,-1,13,15,17,19,-1,-1,21,23,25,27,29,31,33,35,-1,37,-1,-1,39,41,43,45,47,49,51,-1,-1,-1,-1,53,-1,-1,-1,-1,-1,-1,-1,-1,-1,-1,-1,-1,-1,-1,-1,-1,-1,-1],"loss_changes":[2.0276972E5,5.122647E4,3.838572E4,3.6657246E3,3.6341348E3,3.101875E2,0E0,2.19125E2,8.56771E2,1.1254954E3,4.53334E3,0E0,0E0,2.1248242E2,9.7292114E1,4.3020947E2,9.530026E2,5.740823E2,1.8759555E2,2.0492148E3,4.9243164E2,0E0,2.3426562E2,0E0,0E0,5.4414575E2,8.136826E2,2.790598E2,3.7969705E2,3.9928082E2,7.596968E2,3.0101887E1,0E0,0E0,0E0,0E0,5.0488037E2,0E0,0E0,0E0,0E0,0E0,0E0,0E0,0E0,0E0,0E0,0E0,0E0,0E0,0E0,0E0,0E0,0E0,0E0],"parents":[2147483647,0,0,1,1,2,2,3,3,4,4,5,5,7,7,8,8,9,9,10,10,13,13,14,14,15,15,16,16,17,17,18,18,19,19,20,20,22,22,25,25,26,26,27,27,28,28,29,29,30,30,31,31,36,36],"right_children":[2,4,6,8,10,12,-1,14,16,18,20,-1,-1,22,24,26,28,30,32,34,36,-1,38,-1,-1,40,42,44,46,48,50,52,-1,-1,-1,-1,54,-1,-1,-1,-1,-1,-1,-1,-1,-1,-1,-1,-1,-1,-1,-1,-1,-1,-1],"split_conditions":[3.5E2,1.02E2,1.28E2,3.8E1,2.4E1,1.6E4,2.8047117E1,4E0,3.2E1,5.9E1,3.8E1,4.096932E0,1.0409142E1,2.5E1,8E0,2E0,1E1,4E1,6E0,2.6E1,1.26E2,-2.3295004E0,1E0,-1.090765E-1,-1.2770703E0,6E0,1.16E2,6.4E1,4.8E1,2.9E1,2E0,1.13E2,7.9881096E-1,7.7089396E0,2.9855154E0,5.407311E-1,3.2E1,-1.0005283E-1,-1.7590097E0,-2.109717E0,-1.554545E-1,-1.1342831E0,-6.0641345E-2,3.7424725E-3,-1.4410944E0,1.0872163E0,-6.060452E-1,1.5514029E0,-1.2264862E-1,8.138118E-1,3.8962865E0,-6.6530955E-1,-7.295329E-2,9.8955977E-1,2.999948E0],"split_indices":[6,6,5,6,5,1,0,4,3,0,0,0,0,6,5,3,5,0,4,5,6,0,4,0,0,4,0,0,5,0,4,6,0,0,0,0,3,0,0,0,0,0,0,0,0,0,0,0,0,0,0,0,0,0,0],"split_type":[0,0,0,0,0,0,0,0,0,0,0,0,0,0,0,0,0,0,0,0,0,0,0,0,0,0,0,0,0,0,0,0,0,0,0,0,0,0,0,0,0,0,0,0,0,0,0,0,0,0,0,0,0,0,0],"sum_hessian":[1.67E2,1.58E2,9E0,1.25E2,3.3E1,8E0,1E0,7.2E1,5.3E1,1.3E1,2E1,2E0,6E0,6.4E1,8E0,4.2E1,1.1E1,9E0,4E0,7E0,1.3E1,2.9E1,3.5E1,1E0,7E0,8E0,3.4E1,5E0,6E0,5E0,4E0,3E0,1E0,3E0,4E0,2E0,1.1E1,1E0,3.4E1,6E0,2E0,2.4E1,1E1,2E0,3E0,5E0,1E0,3E0,2E0,2E0,2E0,1E0,2E0,3E0,8E0],"tree_param":{"num_deleted":"0","num_feature":"7","num_nodes":"55","size_leaf_vector":"1"}},{"base_weights":[3.1511393E0,-4.9333515E0,1.3137943E2,-1.3590556E1,2.6126188E1,8.676657E1,2.664476E1,-1.6241943E1,-4.6530943E0,1.294015E1,3.4300682E1,3.8238037E0,9.516929E0,-2.0486608E0,-1.3693366E1,-1.3546959E1,-1.3572676E0,1.7600765E1,9.876557E-2,5.2820557E1,2.1267847E1,-1.6843351E1,-1.1717341E1,-1.5402352E1,-2.7960587E-2,1.935627E0,-3.1786225E0,7.4382668E0,2.4829803E1,-3.6708946E0,7.588703E-1,7.130769E0,2.7466743E0,5.046824E-1,2.3550781E1,-2.111943E0,-1.152E0,-1.3207043E0,-6.3184506E-1,-1.6436224E0,-4.59956E-1,1.2497876E0,-4.5202595E-1,1.3031965E0,-1.0265114E0,9.9706995E-1,3.6365342E0,-5.2190554E-1,4.867935E-2,1.3543042E0,3.1301348E0],"categories":[],"categories_nodes":[],"categories_segments":[],"categories_sizes":[],"default_left":[0,0,0,0,0,0,0,0,0,0,0,0,0,0,0,0,0,0,0,0,0,0,0,0,0,0,0,0,0,0,0,0,0,0,0,0,0,0,0,0,0,0,0,0,0,0,0,0,0,0,0],"id":14,"left_children":[1,3,5,7,9,11,-1,13,15,17,19,-1,-1,-1,21,23,25,27,29,31,33,35,37,39,-1,-1,41,43,45,47,-1,-1,-1,-1,49,-1,-1,-1,-1,-1,-1,-1,-1,-1,-1,-1,-1,-1,-1,-1,-1],"loss_changes":[1.748071E5,4.3108387E4,3.7139047E4,2.8865098E3,3.3287656E3,3.0851562E1,0E0,7.579824E2,8.6099225E2,8.9599316E2,3.9453164E3,0E0,0E0,0E0,1.9478125E2,1.9262256E2,9.292404E2,6.234253E2,1.6902994E2,1.7911641E3,3.9958447E2,2.574917E2,2.5434717E2,2.581665E0,0E0,0E0,5.192013E2,7.2793884E2,6.6585864E2,2.8287682E1,0E0,0E0,0E0,0E0,5.0687256E2,0E0,0E0,0E0,0E0,0E0,0E0,0E0,0E0,0E0,0E0,0E0,0E0,0E0,0E0,0E0,0E0],"parents":[2147483647,0,0,1,1,2,2,3,3,4,4,5,5,7,7,8,8,9,9,10,10,14,14,15,15,16,16,17,17,18,18,19,19,20,20,21,21,22,22,23,23,26,26,27,27,28,28,29,29,34,34],"right_children":[2,4,6,8,10,12,-1,14,16,18,20,-1,-1,-1,22,24,26,28,30,32,34,36,38,40,-1,-1,42,44,46,48,-1,-1,-1,-1,50,-1,-1,-1,-1,-1,-1,-1,-1,-1,-1,-1,-1,-1,-1,-1,-1],"split_conditions":[3.5E2,1.01E2,1.28E2,1.6E1,2.4E1,1.6E4,2.664476E1,5E0,4.8E1,5.9E1,3.8E1,3.8238037E0,9.516929E0,-2.0486608E0,1.1E2,1.75E2,4E0,3E1,6E0,2.6E1,1.26E2,4.2E1,3.7E1,1.16E2,-2.7960587E-2,1.935627E0,5E1,2.9E1,5E0,6.4E1,7.588703E-1,7.130769E0,2.7466743E0,5.046824E-1,4.8E1,-2.111943E0,-1.152E0,-1.3207043E0,-6.3184506E-1,-1.6436224E0,-4.59956E-1,1.2497876E0,-4.5202595E-1,1.3031965E0,-1.0265114E0,9.9706995E-1,3.6365342E0,-5.2190554E-1,4.867935E-2,1.3543042E0,3.1301348E0],"split_indices":[6,6,5,3,5,1,0,5,6,0,0,0,0,0,0,0,5,0,4,5,6,6,6,0,0,0,6,0,4,0,0,0,0,0,3,0,0,0,0,0,0,0,0,0,0,0,0,0,0,0,0],"split_type":[0,0,0,0,0,0,0,0,0,0,0,0,0,0,0,0,0,0,0,0,0,0,0,0,0,0,0,0,0,0,0,0,0,0,0,0,0,0,0,0,0,0,0,0,0,0,0,0,0,0,0],"sum_hessian":[1.67E2,1.58E2,9E0,1.24E2,3.4E1,8E0,1E0,9.5E1,2.9E1,1.4E1,2E1,2E0,6E0,3.3E1,6.2E1,7E0,2.2E1,1E1,4E0,7E0,1.3E1,2.1E1,4.1E1,6E0,1E0,1E0,2.1E1,5E0,5E0,3E0,1E0,3E0,4E0,2E0,1.1E1,1E1,1.1E1,3.1E1,1E1,5E0,1E0,1E0,2E1,4E0,1E0,3E0,2E0,2E0,1E0,6E0,5E0],"tree_param":{"num_deleted":"0","num_feature":"7","num_nodes":"51","size_leaf_vector":"1"}},{"base_weights":[3.1537907E0,-2.0909345E0,1.7455002E2,-1.213608E1,3.0416225E1,2.5312521E1,9.162493E0,-1.5052015E1,-5.245353E0,2.1899996E1,5.637033E1,-1.9418161E1,-1.3302418E1,1.8388458E0,-6.3512025E0,5.5514407E0,1.8929035E1,8.0494994E-1,6.1404247E0,-2.018295E0,-7.591915E-1,-1.8508509E0,-1.1924682E1,-7.442938E0,8.866692E0,9.661866E0,2.643394E1,-1.3972012E0,-8.4687424E-1,-9.3645203E-1,-1.5103738E-1,7.27459E-2,1.2572578E0,-6.0594904E-1,1.1217641E0,3.0469182E0,6.710926E-1],"categories":[],"categories_nodes":[],"categories_segments":[],"categories_sizes":[],"default_left":[0,0,0,0,0,0,0,0,0,0,0,0,0,0,0,0,0,0,0,0,0,0,0,0,0,0,0,0,0,0,0,0,0,0,0,0,0],"id":15,"left_children":[1,3,5,7,9,-1,-1,11,13,15,17,19,21,-1,23,-1,25,-1,-1,-1,-1,-1,27,29,31,33,35,-1,-1,-1,-1,-1,-1,-1,-1,-1,-1],"loss_changes":[1.5138456E5,5.3921555E4,9.386703E3,2.452752E3,7.385707E3,0E0,0E0,4.1392383E2,1.1360707E3,2.0450459E3,1.694916E3,5.479883E1,2.5268555E2,0E0,6.97323E2,0E0,1.8310762E3,0E0,0E0,0E0,0E0,0E0,2.7082373E2,3.9625256E2,8.1343185E1,4.3485645E2,1.068917E3,0E0,0E0,0E0,0E0,0E0,0E0,0E0,0E0,0E0,0E0],"parents":[2147483647,0,0,1,1,2,2,3,3,4,4,7,7,8,8,9,9,10,10,11,11,12,12,14,14,16,16,22,22,23,23,24,24,25,25,26,26],"right_children":[2,4,6,8,10,-1,-1,12,14,16,18,20,22,-1,24,-1,26,-1,-1,-1,-1,-1,28,30,32,34,36,-1,-1,-1,-1,-1,-1,-1,-1,-1,-1],"split_conditions":[4.26E2,1.02E2,1.6E4,4.7E1,2.7E2,2.5312521E1,9.162493E0,2.62E3,4E0,3E3,3.2E4,4E0,5E2,1.8388458E0,4.8E1,5.5514407E0,1.51E2,8.0494994E-1,6.1404247E0,-2.018295E0,-7.591915E-1,-1.8508509E0,1.85E2,8E1,6.4E1,1.13E2,1.33E2,-1.3972012E0,-8.4687424E-1,-9.3645203E-1,-1.5103738E-1,7.27459E-2,1.2572578E0,-6.0594904E-1,1.1217641E0,3.0469182E0,6.710926E-1],"split_indices":[6,6,1,6,6,0,0,2,5,2,2,4,1,0,3,0,6,0,0,0,0,0,0,6,0,6,0,0,0,0,0,0,0,0,0,0,0],"split_type":[0,0,0,0,0,0,0,0,0,0,0,0,0,0,0,0,0,0,0,0,0,0,0,0,0,0,0,0,0,0,0,0,0,0,0,0,0],"sum_hessian":[1.67E2,1.63E2,4E0,1.25E2,3.8E1,1E0,3E0,8.7E1,3.8E1,3E1,8E0,2.2E1,6.5E1,1E0,3.7E1,1E0,2.9E1,1E0,7E0,2E1,2E0,1.1E1,5.4E1,3.5E1,2E0,1.4E1,1.5E1,3.2E1,2.2E1,2.6E1,9E0,1E0,1E0,1E0,1.3E1,1.2E1,3E0],"tree_param":{"num_deleted":"0","num_feature":"7","num_nodes":"37","size_leaf_vector":"1"}},{"base_weights":[3.1146896E0,-1.809038E0,1.6399002E2,-1.0960496E1,2.7803595E1,2.4046896E1,8.475305E0,-1.5592127E1,-7.153005E0,2.0025646E1,5.1505016E1,-1.6992678E1,-7.4503183E0,-1.285505E1,-4.3305554E0,5.273868E0,1.7177256E1,7.647026E-1,5.603139E0,-1.7483908E0,-7.340988E0,-9.276069E0,-9.821192E-2,-8.657096E0,-1.451682E0,-5.3971606E-1,-8.592386E0,8.730066E0,2.4022919E1,-9.155528E-1,-9.486847E-2,-1.2771823E-1,-1.1729501E0,-7.035637E-2,5.5624582E-2,-1.7223664E-1,-9.3086416E-1,-1.2455547E0,9.117722E-2,-1.1949697E0,5.883873E-1,-1.2136612E-1,1.1317136E0,2.7656639E0,6.207604E-1],"categories":[],"categories_nodes":[],"categories_segments":[],"categories_sizes":[],"default_left":[0,0,0,0,0,0,0,0,0,0,0,0,0,0,0,0,0,0,0,0,0,0,0,0,0,0,0,0,0,0,0,0,0,0,0,0,0,0,0,0,0,0,0,0,0],"id":16,"left_children":[1,3,5,7,9,-1,-1,11,13,15,17,19,21,23,25,-1,27,-1,-1,-1,29,31,33,35,-1,37,39,41,43,-1,-1,-1,-1,-1,-1,-1,-1,-1,-1,-1,-1,-1,-1,-1,-1],"loss_changes":[1.3337053E5,4.4748535E4,9.919328E3,2.1104658E3,6.158168E3,0E0,0E0,5.1196875E2,1.0869856E3,1.9826582E3,1.3581836E3,9.448633E1,1.3332007E2,3.477539E1,7.870022E2,0E0,1.5250771E3,0E0,0E0,0E0,3.7710648E1,1.4201703E2,1.5798857E0,2.4631714E1,0E0,4.7834015E2,1.1881406E3,3.9961182E2,8.640918E2,0E0,0E0,0E0,0E0,0E0,0E0,0E0,0E0,0E0,0E0,0E0,0E0,0E0,0E0,0E0,0E0],"parents":[2147483647,0,0,1,1,2,2,3,3,4,4,7,7,8,8,9,9,10,10,11,11,12,12,13,13,14,14,16,16,20,20,21,21,22,22,23,23,25,25,26,26,27,27,28,28],"right_children":[2,4,6,8,10,-1,-1,12,14,16,18,20,22,24,26,-1,28,-1,-1,-1,30,32,34,36,-1,38,40,42,44,-1,-1,-1,-1,-1,-1,-1,-1,-1,-1,-1,-1,-1,-1,-1,-1],"split_conditions":[4.26E2,1.02E2,1.6E4,2E0,2.7E2,2.4046896E1,8.475305E0,4E0,4.5E3,3E3,3.2E4,1.3E1,4E1,8E0,2E0,5.273868E0,1.51E2,7.647026E-1,5.603139E0,-1.7483908E0,1.8E2,5E0,1.12E2,1.16E2,-1.451682E0,5E2,3.1E3,1E1,1.33E2,-9.155528E-1,-9.486847E-2,-1.2771823E-1,-1.1729501E0,-7.035637E-2,5.5624582E-2,-1.7223664E-1,-9.3086416E-1,-1.2455547E0,9.117722E-2,-1.1949697E0,5.883873E-1,-1.2136612E-1,1.1317136E0,2.7656639E0,6.207604E-1],"split_indices":[6,6,1,3,6,0,0,4,2,2,2,5,6,3,4,0,6,0,0,0,0,4,0,0,0,1,1,5,0,0,0,0,0,0,0,0,0,0,0,0,0,0,0,0,0],"split_type":[0,0,0,0,0,0,0,0,0,0,0,0,0,0,0,0,0,0,0,0,0,0,0,0,0,0,0,0,0,0,0,0,0,0,0,0,0,0,0,0,0,0,0,0,0],"sum_hessian":[1.67E2,1.63E2,4E0,1.25E2,3.8E1,1E0,3E0,5.5E1,7E1,3E1,8E0,4.6E1,9E0,2.2E1,4.8E1,1E0,2.9E1,1E0,7E0,4.3E1,3E0,7E0,2E0,8E0,1.4E1,2.6E1,2.2E1,1.4E1,1.5E1,2E0,1E0,2E0,5E0,1E0,1E0,1E0,7E0,2E0,2.4E1,1.8E1,4E0,3E0,1.1E1,1.2E1,3E0],"tree_param":{"num_deleted":"0","num_feature":"7","num_nodes":"45","size_leaf_vector":"1"}},{"base_weights":[3.042331E0,-1.581498E0,1.5409546E2,-9.931033E0,2.5434475E1,2.2844553E1,7.8396564E0,-1.23860655E1,-4.1368313E0,1.8335037E1,4.7062046E1,-1.6095753E1,-1.0905628E1,1.7423447E0,-5.162719E0,5.0101748E0,1.5606088E1,7.2646755E-1,5.112863E0,-1.6716608E0,-6.3845164E-1,-1.5620487E0,-9.784752E0,-9.841894E0,-1.6831748E0,7.9244165E0,2.1832275E1,-1.1635865E0,-6.831776E-1,-3.5287935E-2,-1.2975491E0,4.249485E-1,-5.8005625E-1,-5.695831E-1,9.3041366E-1,3.6234303E0,1.5721476E0],"categories":[],"categories_nodes":[],"categories_segments":[],"categories_sizes":[],"default_left":[0,0,0,0,0,0,0,0,0,0,0,0,0,0,0,0,0,0,0,0,0,0,0,0,0,0,0,0,0,0,0,0,0,0,0,0,0],"id":17,"left_children":[1,3,5,7,9,-1,-1,11,13,15,17,19,21,-1,23,-1,25,-1,-1,-1,-1,-1,27,29,31,33,35,-1,-1,-1,-1,-1,-1,-1,-1,-1,-1],"loss_changes":[1.17582266E5,3.7246203E4,1.023175E4,1.7411055E3,5.1253145E3,0E0,0E0,3.077578E2,9.5257086E2,1.9054893E3,1.085123E3,3.19458E1,1.9595215E2,0E0,6.021273E2,0E0,1.2618169E3,0E0,0E0,0E0,0E0,0E0,2.2661865E2,4.7117737E2,5.8647174E2,3.348767E2,8.384697E2,0E0,0E0,0E0,0E0,0E0,0E0,0E0,0E0,0E0,0E0],"parents":[2147483647,0,0,1,1,2,2,3,3,4,4,7,7,8,8,9,9,10,10,11,11,12,12,14,14,16,16,22,22,23,23,24,24,25,25,26,26],"right_children":[2,4,6,8,10,-1,-1,12,14,16,18,20,22,-1,24,-1,26,-1,-1,-1,-1,-1,28,30,32,34,36,-1,-1,-1,-1,-1,-1,-1,-1,-1,-1],"split_conditions":[4.26E2,1.02E2,1.6E4,4.7E1,2.7E2,2.2844553E1,7.8396564E0,2.62E3,4E0,3E3,3.2E4,4E0,3.84E2,1.7423447E0,5.7E1,5.0101748E0,1.51E2,7.2646755E-1,5.112863E0,-1.6716608E0,-6.3845164E-1,-1.5620487E0,1.85E2,4E1,8.4E1,1.13E2,1.75E2,-1.1635865E0,-6.831776E-1,-3.5287935E-2,-1.2975491E0,4.249485E-1,-5.8005625E-1,-5.695831E-1,9.3041366E-1,3.6234303E0,1.5721476E0],"split_indices":[6,6,1,6,6,0,0,2,5,2,2,4,1,0,0,0,6,0,0,0,0,0,0,0,0,6,6,0,0,0,0,0,0,0,0,0,0],"split_type":[0,0,0,0,0,0,0,0,0,0,0,0,0,0,0,0,0,0,0,0,0,0,0,0,0,0,0,0,0,0,0,0,0,0,0,0,0],"sum_hessian":[1.67E2,1.63E2,4E0,1.25E2,3.8E1,1E0,3E0,8.7E1,3.8E1,3E1,8E0,2.2E1,6.5E1,1E0,3.7E1,1E0,2.9E1,1E0,7E0,2E1,2E0,1E1,5.5E1,1.5E1,2.2E1,1.4E1,1.5E1,3.2E1,2.3E1,4E0,1.1E1,9E0,1.3E1,1E0,1.3E1,3E0,1.2E1],"tree_param":{"num_deleted":"0","num_feature":"7","num_nodes":"37","size_leaf_vector":"1"}},{"base_weights":[2.9858696E0,-1.3566322E0,1.4482275E2,-8.981299E0,2.3311693E1,2.1702326E1,7.251682E0,-1.287873E1,-5.7807727E0,1.684239E1,4.300466E1,-1.4091646E1,-5.890153E0,-1.0630985E1,-3.3861675E0,4.7596664E0,1.4230693E1,6.90144E-1,4.6654887E0,-1.4508814E1,-5.979888E0,-7.6186E0,6.824239E-1,-6.9974136E0,-1.2102396E0,-1.2153908E-2,-7.1997414E0,7.1560273E0,1.9973774E1,-7.756179E-1,-1.4990172E0,-7.600076E-1,-5.5966187E-2,-5.764478E-2,-9.869909E-1,-8.658982E-3,1.1102257E-1,-1.0544548E-1,-7.608477E-1,-1.0911142E0,1.2962107E-1,-1.0098976E0,5.2572984E-1,-1.445446E-1,9.4268495E-1,3.3516731E0,1.4270266E0],"categories":[],"categories_nodes":[],"categories_segments":[],"categories_sizes":[],"default_left":[0,0,0,0,0,0,0,0,0,0,0,0,0,0,0,0,0,0,0,0,0,0,0,0,0,0,0,0,0,0,0,0,0,0,0,0,0,0,0,0,0,0,0,0,0,0,0],"id":18,"left_children":[1,3,5,7,9,-1,-1,11,13,15,17,19,21,23,25,-1,27,-1,-1,29,31,33,35,37,-1,39,41,43,45,-1,-1,-1,-1,-1,-1,-1,-1,-1,-1,-1,-1,-1,-1,-1,-1,-1,-1],"loss_changes":[1.03672195E5,3.1055768E4,1.0364789E4,1.4972539E3,4.244289E3,0E0,0E0,3.9168555E2,7.886201E2,1.8126133E3,8.640781E2,7.228516E1,1.1880261E2,3.8283447E1,6.3039795E2,0E0,1.0759785E3,0E0,0E0,2.675293E1,3.0873672E1,1.21143036E2,1.0830905E0,2.4660889E1,0E0,3.9915912E2,8.837584E2,3.066123E2,7.5758545E2,0E0,0E0,0E0,0E0,0E0,0E0,0E0,0E0,0E0,0E0,0E0,0E0,0E0,0E0,0E0,0E0,0E0,0E0],"parents":[2147483647,0,0,1,1,2,2,3,3,4,4,7,7,8,8,9,9,10,10,11,11,12,12,13,13,14,14,16,16,19,19,20,20,21,21,22,22,23,23,25,25,26,26,27,27,28,28],"right_children":[2,4,6,8,10,-1,-1,12,14,16,18,20,22,24,26,-1,28,-1,-1,30,32,34,36,38,-1,40,42,44,46,-1,-1,-1,-1,-1,-1,-1,-1,-1,-1,-1,-1,-1,-1,-1,-1,-1,-1],"split_conditions":[4.26E2,1.02E2,1.6E4,2E0,2.7E2,2.1702326E1,7.251682E0,4E0,4.5E3,3E3,3.2E4,1.3E1,4E1,8E0,2E0,4.7596664E0,1.51E2,6.90144E-1,4.6654887E0,1E0,1.8E2,5E0,1.12E2,1.16E2,-1.2102396E0,5E2,3.1E3,1E1,1.75E2,-7.756179E-1,-1.4990172E0,-7.600076E-1,-5.5966187E-2,-5.764478E-2,-9.869909E-1,-8.658982E-3,1.1102257E-1,-1.0544548E-1,-7.608477E-1,-1.0911142E0,1.2962107E-1,-1.0098976E0,5.2572984E-1,-1.445446E-1,9.4268495E-1,3.3516731E0,1.4270266E0],"split_indices":[6,6,1,3,6,0,0,4,2,2,2,5,6,3,4,0,6,0,0,4,0,4,0,0,0,1,1,5,6,0,0,0,0,0,0,0,0,0,0,0,0,0,0,0,0,0,0],"split_type":[0,0,0,0,0,0,0,0,0,0,0,0,0,0,0,0,0,0,0,0,0,0,0,0,0,0,0,0,0,0,0,0,0,0,0,0,0,0,0,0,0,0,0,0,0,0,0],"sum_hessian":[1.67E2,1.63E2,4E0,1.25E2,3.8E1,1E0,3E0,5.5E1,7E1,3E1,8E0,4.6E1,9E0,2.2E1,4.8E1,1E0,2.9E1,1E0,7E0,4.3E1,3E0,7E0,2E0,8E0,1.4E1,2.6E1,2.2E1,1.4E1,1.5E1,4E0,3.9E1,2E0,1E0,2E0,5E0,1E0,1E0,1E0,7E0,2E0,2.4E1,1.8E1,4E0,3E0,1.1E1,3E0,1.2E1],"tree_param":{"num_deleted":"0","num_feature":"7","num_nodes":"47","size_leaf_vector":"1"}},{"base_weights":[2.9080615E0,-2.4453738E-1,1.763825E1,-8.143131E0,2.4035154E1,-1.1456541E1,-5.054359E0,1.5491585E1,4.592747E1,-1.2420369E1,-5.3953643E0,-9.887704E0,-3.0770545E0,4.5216827E0,1.2993516E1,6.556366E-1,4.9208946E1,-1.7280759E0,-1.125438E1,-6.987319E0,6.4830273E-1,-4.6547585E0,-1.097284E0,-4.6550326E-2,-6.500818E0,6.493632E0,1.8275063E1,5.156423E0,1.4005677E0,-7.7237004E-1,-1.2485837E0,-5.3801853E-2,-9.047416E-1,-8.226014E-3,1.05471425E-1,-5.206854E-1,-1.2231884E-1,-2.5384077E-1,5.21921E-1,-9.1422313E-1,4.8367172E-1,-5.3387684E-1,7.720144E-1,3.100298E0,1.2953005E0],"categories":[],"categories_nodes":[],"categories_segments":[],"categories_sizes":[],"default_left":[0,0,0,0,0,0,0,0,0,0,0,0,0,0,0,0,0,0,0,0,0,0,0,0,0,0,0,0,0,0,0,0,0,0,0,0,0,0,0,0,0,0,0,0,0],"id":19,"left_children":[1,3,-1,5,7,9,11,13,15,17,19,21,23,-1,25,-1,27,-1,29,31,33,35,-1,37,39,41,43,-1,-1,-1,-1,-1,-1,-1,-1,-1,-1,-1,-1,-1,-1,-1,-1,-1,-1],"loss_changes":[9.1921555E4,3.203044E4,0E0,1.231625E3,6.957092E3,2.8350342E2,6.098937E2,1.7144014E3,1.0985176E3,9.4541504E1,1.0074237E2,5.6814575E1,5.0810815E2,0E0,9.112114E2,0E0,1.06947266E2,0E0,9.486963E1,1.0142178E2,9.774884E-1,3.1038055E0,0E0,3.6752957E2,7.3300214E2,2.589048E2,6.822378E2,0E0,0E0,0E0,0E0,0E0,0E0,0E0,0E0,0E0,0E0,0E0,0E0,0E0,0E0,0E0,0E0,0E0,0E0],"parents":[2147483647,0,0,1,1,3,3,4,4,5,5,6,6,7,7,8,8,9,9,10,10,11,11,12,12,14,14,16,16,18,18,19,19,20,20,21,21,23,23,24,24,25,25,26,26],"right_children":[2,4,-1,6,8,10,12,14,16,18,20,22,24,-1,26,-1,28,-1,30,32,34,36,-1,38,40,42,44,-1,-1,-1,-1,-1,-1,-1,-1,-1,-1,-1,-1,-1,-1,-1,-1,-1,-1],"split_conditions":[6.4E4,1.02E2,1.763825E1,4E0,2.7E2,4E0,4.5E3,3E3,3.2E4,2E3,4E1,8E0,2E0,4.5216827E0,1.51E2,6.556366E-1,4E1,-1.7280759E0,3E0,5E0,1.12E2,7.68E2,-1.097284E0,7.2E1,3.1E3,1.13E2,1.75E2,5.156423E0,1.4005677E0,-7.7237004E-1,-1.2485837E0,-5.3801853E-2,-9.047416E-1,-8.226014E-3,1.05471425E-1,-5.206854E-1,-1.2231884E-1,-2.5384077E-1,5.21921E-1,-9.1422313E-1,4.8367172E-1,-5.3387684E-1,7.720144E-1,3.100298E0,1.2953005E0],"split_indices":[2,6,0,3,6,4,2,2,2,2,6,3,4,0,6,0,0,0,5,4,0,1,0,6,1,6,6,0,0,0,0,0,0,0,0,0,0,0,0,0,0,0,0,0,0],"split_type":[0,0,0,0,0,0,0,0,0,0,0,0,0,0,0,0,0,0,0,0,0,0,0,0,0,0,0,0,0,0,0,0,0,0,0,0,0,0,0,0,0,0,0,0,0],"sum_hessian":[1.67E2,1.65E2,2E0,1.25E2,4E1,5.9E1,6.6E1,3E1,1E1,5E1,9E0,1.8E1,4.8E1,1E0,2.9E1,1E0,9E0,7E0,4.3E1,7E0,2E0,4E0,1.4E1,2.6E1,2.2E1,1.4E1,1.5E1,8E0,1E0,1.3E1,3E1,2E0,5E0,1E0,1E0,3E0,1E0,1.8E1,8E0,1.8E1,4E0,1E0,1.3E1,3E0,1.2E1],"tree_param":{"num_deleted":"0","num_feature":"7","num_nodes":"45","size_leaf_vector":"1"}},{"base_weights":[2.7809045E0,-1.6071735E-1,1.6462367E2,-7.3805094E0,2.2030855E1,4.9582553E0,1.9735296E1,-1.0606898E1,-4.7318006E0,1.4237761E1,4.199041E1,-1.1586527E1,-4.941957E0,-8.699881E0,-2.7726653E0,4.2955995E0,1.184862E1,6.2285465E-1,4.494374E1,-1.1953839E1,-4.649455E0,-6.408404E0,6.158867E-1,-5.651846E0,-9.9487084E-1,-4.723897E0,1.546994E0,5.860143E0,1.6722279E1,4.8996463E0,1.9155234E0,-1.5768692E0,-1.080593E0,-6.2610155E-1,9.261322E-3,-5.0215025E-2,-8.2934636E-1,-7.814789E-3,1.0019779E-1,-3.7743952E-2,-6.263967E-1,-2.2587481E-1,-1.1320561E0,-1.0014504E0,3.9139584E-1,-1.5895748E-1,7.8550375E-1,2.0482996E0,4.3520996E-1],"categories":[],"categories_nodes":[],"categories_segments":[],"categories_sizes":[],"default_left":[0,0,0,0,0,0,0,0,0,0,0,0,0,0,0,0,0,0,0,0,0,0,0,0,0,0,0,0,0,0,0,0,0,0,0,0,0,0,0,0,0,0,0,0,0,0,0,0,0],"id":20,"left_children":[1,3,5,7,9,-1,-1,11,13,15,17,19,21,23,25,-1,27,-1,29,31,33,35,37,39,-1,41,43,45,47,-1,-1,-1,-1,-1,-1,-1,-1,-1,-1,-1,-1,-1,-1,-1,-1,-1,-1,-1,-1],"loss_changes":[8.000794E4,2.6758877E4,1.510375E3,1.0265762E3,5.7795645E3,0E0,0E0,2.5351416E2,5.278325E2,1.618E3,8.818496E2,6.4180664E1,8.5449646E1,3.1320312E1,4.203121E2,0E0,7.775791E2,0E0,1.0659961E2,2.2285645E1,3.1148376E1,8.490457E1,8.821845E-1,2.6692871E1,0E0,5.273295E2,4.7704684E2,2.354071E2,6.55188E2,0E0,0E0,0E0,0E0,0E0,0E0,0E0,0E0,0E0,0E0,0E0,0E0,0E0,0E0,0E0,0E0,0E0,0E0,0E0,0E0],"parents":[2147483647,0,0,1,1,2,2,3,3,4,4,7,7,8,8,9,9,10,10,11,11,12,12,13,13,14,14,16,16,18,18,19,19,20,20,21,21,22,22,23,23,25,25,26,26,27,27,28,28],"right_children":[2,4,6,8,10,-1,-1,12,14,16,18,20,22,24,26,-1,28,-1,30,32,34,36,38,40,-1,42,44,46,48,-1,-1,-1,-1,-1,-1,-1,-1,-1,-1,-1,-1,-1,-1,-1,-1,-1,-1,-1,-1],"split_conditions":[6.4E4,1.02E2,2.5E1,2E0,2.7E2,4.9582553E0,1.9735296E1,4E0,4.5E3,3E3,3.2E4,1.3E1,4E1,8E0,1.24E2,4.2955995E0,1.51E2,6.2285465E-1,2.4E1,2E3,1.8E2,5E0,1.12E2,1.16E2,-9.9487084E-1,8.4E1,5E2,1E1,8.4E1,4.8996463E0,1.9155234E0,-1.5768692E0,-1.080593E0,-6.2610155E-1,9.261322E-3,-5.0215025E-2,-8.2934636E-1,-7.814789E-3,1.0019779E-1,-3.7743952E-2,-6.263967E-1,-2.2587481E-1,-1.1320561E0,-1.0014504E0,3.9139584E-1,-1.5895748E-1,7.8550375E-1,2.0482996E0,4.3520996E-1],"split_indices":[2,6,0,3,6,0,0,4,2,2,2,5,6,3,0,0,6,0,4,2,0,4,0,0,0,0,1,5,0,0,0,0,0,0,0,0,0,0,0,0,0,0,0,0,0,0,0,0,0],"split_type":[0,0,0,0,0,0,0,0,0,0,0,0,0,0,0,0,0,0,0,0,0,0,0,0,0,0,0,0,0,0,0,0,0,0,0,0,0,0,0,0,0,0,0,0,0,0,0,0,0],"sum_hessian":[1.67E2,1.65E2,2E0,1.25E2,4E1,1E0,1E0,5.5E1,7E1,3E1,1E1,4.6E1,9E0,2.2E1,4.8E1,1E0,2.9E1,1E0,9E0,4.3E1,3E0,7E0,2E0,8E0,1.4E1,3.3E1,1.5E1,1.4E1,1.5E1,7E0,2E0,7E0,3.6E1,2E0,1E0,2E0,5E0,1E0,1E0,1E0,7E0,2.5E1,8E0,2E0,1.3E1,3E0,1.1E1,1.1E1,4E0],"tree_param":{"num_deleted":"0","num_feature":"7","num_nodes":"49","size_leaf_vector":"1"}},{"base_weights":[2.6923897E0,-1.015423E-1,1.563925E2,-6.703478E0,2.018981E1,4.7103424E0,1.8748533E1,-8.43059E0,-2.6345208E0,1.3052877E1,3.8467545E1,-1.115042E1,-7.355034E0,1.6030804E0,-3.5475767E0,4.0808196E0,1.07674265E1,5.917122E-1,4.1130875E1,-1.1432284E0,-2.4747105E-1,3.02734E-1,-7.5613375E0,1.2975241E0,-6.11893E0,5.6255016E0,1.5534319E1,4.4709263E0,1.7878214E0,-1.1029543E0,-6.7302173E-1,7.578184E-1,-4.360244E-1,-8.3527565E-1,-3.279543E-2,-4.9923515E-1,6.666182E-1,3.276552E0,1.036294E0],"categories":[],"categories_nodes":[],"categories_segments":[],"categories_sizes":[],"default_left":[0,0,0,0,0,0,0,0,0,0,0,0,0,0,0,0,0,0,0,0,0,0,0,0,0,0,0,0,0,0,0,0,0,0,0,0,0,0,0],"id":21,"left_children":[1,3,5,7,9,-1,-1,11,13,15,17,19,21,-1,23,-1,25,-1,27,-1,-1,-1,29,31,33,35,37,-1,-1,-1,-1,-1,-1,-1,-1,-1,-1,-1,-1],"loss_changes":[7.215972E4,2.2373068E4,1.363125E3,8.6326074E2,4.846211E3,0E0,0E0,1.7541748E2,7.2152747E2,1.5270366E3,7.102422E2,2.795166E1,1.6425732E2,0E0,4.8136118E2,0E0,6.479414E2,0E0,3.275E1,0E0,0E0,0E0,1.131311E2,5.30526E2,3.2066156E2,2.1007657E2,9.970886E2,0E0,0E0,0E0,0E0,0E0,0E0,0E0,0E0,0E0,0E0,0E0,0E0],"parents":[2147483647,0,0,1,1,2,2,3,3,4,4,7,7,8,8,9,9,10,10,11,11,12,12,14,14,16,16,18,18,22,22,23,23,24,24,25,25,26,26],"right_children":[2,4,6,8,10,-1,-1,12,14,16,18,20,22,-1,24,-1,26,-1,28,-1,-1,-1,30,32,34,36,38,-1,-1,-1,-1,-1,-1,-1,-1,-1,-1,-1,-1],"split_conditions":[6.4E4,1.02E2,2.5E1,4.7E1,2.7E2,4.7103424E0,1.8748533E1,2.62E3,4E0,3E3,3.2E4,7E0,1E0,1.6030804E0,1.048E4,4.0808196E0,1.57E2,5.917122E-1,2.4E1,-1.1432284E0,-2.4747105E-1,3.02734E-1,3.84E2,8.4E1,8.1E1,1.13E2,1.75E2,4.4709263E0,1.7878214E0,-1.1029543E0,-6.7302173E-1,7.578184E-1,-4.360244E-1,-8.3527565E-1,-3.279543E-2,-4.9923515E-1,6.666182E-1,3.276552E0,1.036294E0],"split_indices":[2,6,0,6,6,0,0,2,5,2,2,4,4,0,2,0,6,0,4,0,0,0,1,0,6,6,6,0,0,0,0,0,0,0,0,0,0,0,0],"split_type":[0,0,0,0,0,0,0,0,0,0,0,0,0,0,0,0,0,0,0,0,0,0,0,0,0,0,0,0,0,0,0,0,0,0,0,0,0,0,0],"sum_hessian":[1.67E2,1.65E2,2E0,1.25E2,4E1,1E0,1E0,8.7E1,3.8E1,3E1,1E1,2.2E1,6.5E1,1E0,3.7E1,1E0,2.9E1,1E0,9E0,2.1E1,1E0,1E0,6.4E1,1.3E1,2.4E1,1.5E1,1.4E1,7E0,2E0,1E1,5.4E1,6E0,7E0,1.7E1,7E0,1E0,1.4E1,2E0,1.2E1],"tree_param":{"num_deleted":"0","num_feature":"7","num_nodes":"39","size_leaf_vector":"1"}},{"base_weights":[2.6437664E0,-9.432999E-3,1.4857288E2,-6.047472E0,1.8546722E1,4.4748263E0,1.7811106E1,-8.778298E0,-3.808405E0,1.2023753E1,3.524357E1,-9.615992E0,-3.963314E0,-4.247005E0,7.5488663E0,3.8767793E0,9.840025E0,5.6212693E-1,3.764367E1,-1.3388606E0,-8.621068E0,-5.3418074E0,1.0337728E0,-7.1373515E0,-2.742218E0,2.291565E-2,1.1094143E0,3.723112E0,1.3185443E1,4.930739E0,2.5601023E1,-5.2463233E-1,-1.0051638E0,-1.9990287E-3,-7.112415E-1,2.6226807E-2,1.2883912E-1,-4.4099528E-1,-8.297968E-1,-5.1007056E-1,1.7198598E-1,6.411981E-1,-1.2927223E0,1.5303328E0,1.4175415E-1,1.4813843E-1,2.9374063E0],"categories":[],"categories_nodes":[],"categories_segments":[],"categories_sizes":[],"default_left":[0,0,0,0,0,0,0,0,0,0,0,0,0,0,0,0,0,0,0,0,0,0,0,0,0,0,0,0,0,0,0,0,0,0,0,0,0,0,0,0,0,0,0,0,0,0,0],"id":22,"left_children":[1,3,5,7,9,-1,-1,11,13,15,17,19,21,23,25,-1,27,-1,29,-1,31,33,35,37,39,-1,-1,41,43,-1,45,-1,-1,-1,-1,-1,-1,-1,-1,-1,-1,-1,-1,-1,-1,-1,-1],"loss_changes":[6.5047477E4,1.8711262E4,1.2302109E3,7.369966E2,4.0416738E3,0E0,0E0,1.8776318E2,3.8573242E2,1.4289766E3,5.7045605E2,6.098877E1,7.440672E1,2.8053333E2,7.5308914E1,0E0,5.648181E2,0E0,1.4230078E2,0E0,1.4037817E2,7.5240585E1,2.5141382E-1,3.6212036E1,5.0338895E2,0E0,0E0,6.20136E2,4.5184497E2,0E0,5.935171E2,0E0,0E0,0E0,0E0,0E0,0E0,0E0,0E0,0E0,0E0,0E0,0E0,0E0,0E0,0E0,0E0],"parents":[2147483647,0,0,1,1,2,2,3,3,4,4,7,7,8,8,9,9,10,10,11,11,12,12,13,13,14,14,16,16,18,18,20,20,21,21,22,22,23,23,24,24,27,27,28,28,30,30],"right_children":[2,4,6,8,10,-1,-1,12,14,16,18,20,22,24,26,-1,28,-1,30,-1,32,34,36,38,40,-1,-1,42,44,-1,46,-1,-1,-1,-1,-1,-1,-1,-1,-1,-1,-1,-1,-1,-1,-1,-1],"split_conditions":[6.4E4,1.02E2,2.5E1,2E0,2.7E2,4.4748263E0,1.7811106E1,4E0,4.8E1,3E3,3.2E4,2E3,4E1,4.5E3,6.4E1,3.8767793E0,1.36E2,5.6212693E-1,2.6E1,-1.3388606E0,3E0,5E0,1.12E2,8E0,1.16E2,2.291565E-2,1.1094143E0,1.32E2,1.33E2,4.930739E0,1.2E1,-5.2463233E-1,-1.0051638E0,-1.9990287E-3,-7.112415E-1,2.6226807E-2,1.2883912E-1,-4.4099528E-1,-8.297968E-1,-5.1007056E-1,1.7198598E-1,6.411981E-1,-1.2927223E0,1.5303328E0,1.4175415E-1,1.4813843E-1,2.9374063E0],"split_indices":[2,6,0,3,6,0,0,4,3,2,2,2,6,2,0,0,6,0,5,0,5,4,0,3,0,0,0,6,0,0,4,0,0,0,0,0,0,0,0,0,0,0,0,0,0,0,0],"split_type":[0,0,0,0,0,0,0,0,0,0,0,0,0,0,0,0,0,0,0,0,0,0,0,0,0,0,0,0,0,0,0,0,0,0,0,0,0,0,0,0,0,0,0,0,0,0,0],"sum_hessian":[1.67E2,1.65E2,2E0,1.25E2,4E1,1E0,1E0,5.5E1,7E1,3E1,1E1,4.6E1,9E0,6.8E1,2E0,1E0,2.9E1,1E0,9E0,7E0,3.9E1,7E0,2E0,2.2E1,4.6E1,1E0,1E0,1.1E1,1.8E1,3E0,6E0,1.3E1,2.6E1,2E0,5E0,1E0,1E0,8E0,1.4E1,3E1,1.6E1,1E1,1E0,1.5E1,3E0,1E0,5E0],"tree_param":{"num_deleted":"0","num_feature":"7","num_nodes":"47","size_leaf_vector":"1"}},{"base_weights":[2.5690222E0,4.9174905E-2,1.4114423E2,-5.56399E0,1.675385E1,4.2510834E0,1.6920551E1,-6.802157E0,-1.4163892E0,1.0817875E1,3.249907E1,-8.938762E0,-5.5410976E0,-7.357874E0,7.117963E-1,3.6829407E0,8.790749E0,5.3402025E-1,3.4680935E1,-4.154977E0,-9.438101E-1,-8.178332E0,-4.027758E0,-8.572066E0,5.7073593E-2,1.5143269E0,-6.325101E-1,4.455651E0,1.3117809E1,4.5609345E0,2.348171E1,3.1382886E-1,-6.762865E-1,-1.0570655E0,-5.3038424E-1,1.3233992E-1,-4.786655E-1,-9.2661184E-1,-2.2038785E-1,1.3677342E0,-1.9652335E-1,-2.1597557E-1,6.0275066E-1,2.9560928E0,8.3141804E-1,1.4073181E-1,2.6926224E0],"categories":[],"categories_nodes":[],"categories_segments":[],"categories_sizes":[],"default_left":[0,0,0,0,0,0,0,0,0,0,0,0,0,0,0,0,0,0,0,0,0,0,0,0,0,0,0,0,0,0,0,0,0,0,0,0,0,0,0,0,0,0,0,0,0,0,0],"id":23,"left_children":[1,3,5,7,9,-1,-1,11,13,15,17,19,21,23,25,-1,27,-1,29,31,-1,33,35,37,-1,-1,39,41,43,-1,45,-1,-1,-1,-1,-1,-1,-1,-1,-1,-1,-1,-1,-1,-1,-1,-1],"loss_changes":[5.8656703E4,1.5658392E4,1.1102734E3,6.3229297E2,3.5738857E3,0E0,0E0,2.0913037E2,3.8457477E2,1.3635596E3,4.6662305E2,4.200171E1,2.184945E2,8.190726E1,4.5578564E2,0E0,5.2305664E2,0E0,1.5291211E2,1.1632393E2,0E0,9.5222534E1,1.7689569E2,1.0517517E1,0E0,0E0,4.4644284E2,1.8979178E2,9.3902466E2,0E0,4.9435522E2,0E0,0E0,0E0,0E0,0E0,0E0,0E0,0E0,0E0,0E0,0E0,0E0,0E0,0E0,0E0,0E0],"parents":[2147483647,0,0,1,1,2,2,3,3,4,4,7,7,8,8,9,9,10,10,11,11,12,12,13,13,14,14,16,16,18,18,19,19,21,21,22,22,23,23,26,26,27,27,28,28,30,30],"right_children":[2,4,6,8,10,-1,-1,12,14,16,18,20,22,24,26,-1,28,-1,30,32,-1,34,36,38,-1,-1,40,42,44,-1,46,-1,-1,-1,-1,-1,-1,-1,-1,-1,-1,-1,-1,-1,-1,-1,-1],"split_conditions":[6.4E4,1.01E2,2.5E1,1.6E1,2.7E2,4.2510834E0,1.6920551E1,5E0,4.8E1,3E3,3.2E4,1E0,1.1E2,1.75E2,4E0,3.6829407E0,1.57E2,5.3402025E-1,2.6E1,7E2,-9.438101E-1,4.2E1,1.4E2,4.7E1,5.7073593E-2,1.5143269E0,5E1,1E1,1.75E2,4.5609345E0,1.2E1,3.1382886E-1,-6.762865E-1,-1.0570655E0,-5.3038424E-1,1.3233992E-1,-4.786655E-1,-9.2661184E-1,-2.2038785E-1,1.3677342E0,-1.9652335E-1,-2.1597557E-1,6.0275066E-1,2.9560928E0,8.3141804E-1,1.4073181E-1,2.6926224E0],"split_indices":[2,6,0,3,6,0,0,5,6,2,2,4,0,0,5,0,6,0,5,0,0,6,0,6,0,0,6,5,6,0,4,0,0,0,0,0,0,0,0,0,0,0,0,0,0,0,0],"split_type":[0,0,0,0,0,0,0,0,0,0,0,0,0,0,0,0,0,0,0,0,0,0,0,0,0,0,0,0,0,0,0,0,0,0,0,0,0,0,0,0,0,0,0,0,0,0,0],"sum_hessian":[1.67E2,1.65E2,2E0,1.24E2,4.1E1,1E0,1E0,9.5E1,2.9E1,3.1E1,1E1,3.3E1,6.2E1,7E0,2.2E1,1E0,3E1,1E0,9E0,4E0,2.9E1,2.1E1,4.1E1,6E0,1E0,1E0,2.1E1,1.6E1,1.4E1,3E0,6E0,1E0,3E0,1E1,1.1E1,5E0,3.6E1,5E0,1E0,1E0,2E1,3E0,1.3E1,2E0,1.2E1,1E0,5E0],"tree_param":{"num_deleted":"0","num_feature":"7","num_nodes":"47","size_leaf_vector":"1"}},{"base_weights":[2.5223138E0,1.2944391E-1,1.3408702E2,-4.9395556E0,1.5704188E1,4.0385284E0,1.6074524E1,-7.1325364E0,-2.901968E0,1.1745928E1,3.6836383E0,-7.7413754E0,-3.3142025E0,-3.328295E0,7.302439E0,3.4987931E0,1.0082216E1,-1.1410552E0,-6.898312E0,-4.554325E0,1.0975252E0,-3.9598103E0,2.4699466E0,3.1595994E-2,1.0637699E0,6.028494E0,1.8378654E1,-1.1135057E0,-5.9363246E-1,3.004519E-2,-6.22266E-1,1.8298341E-2,1.4633046E-1,-6.3803774E-1,-1.4072496E-1,6.4233875E-1,-2.1009807E-1,7.6821506E-1,-2.1225618E-1,2.400346E0,1.1735414E0],"categories":[],"categories_nodes":[],"categories_segments":[],"categories_sizes":[],"default_left":[0,0,0,0,0,0,0,0,0,0,0,0,0,0,0,0,0,0,0,0,0,0,0,0,0,0,0,0,0,0,0,0,0,0,0,0,0,0,0,0,0],"id":24,"left_children":[1,3,5,7,9,-1,-1,11,13,15,-1,17,19,21,23,-1,25,-1,27,29,31,33,35,-1,-1,37,39,-1,-1,-1,-1,-1,-1,-1,-1,-1,-1,-1,-1,-1,-1],"loss_changes":[5.2871938E4,1.3183003E4,1.00201953E3,5.4231885E2,2.9968389E3,0E0,0E0,1.1382886E2,3.1578247E2,1.0392925E3,0E0,7.904712E1,5.9709312E1,2.4778955E2,6.65441E1,0E0,1.0663049E3,0E0,1.1322925E2,6.6664734E1,7.35801E-1,3.5556128E2,1.3999164E2,0E0,0E0,3.5328192E2,1.293457E2,0E0,0E0,0E0,0E0,0E0,0E0,0E0,0E0,0E0,0E0,0E0,0E0,0E0,0E0],"parents":[2147483647,0,0,1,1,2,2,3,3,4,4,7,7,8,8,9,9,11,11,12,12,13,13,14,14,16,16,18,18,19,19,20,20,21,21,22,22,25,25,26,26],"right_children":[2,4,6,8,10,-1,-1,12,14,16,-1,18,20,22,24,-1,26,-1,28,30,32,34,36,-1,-1,38,40,-1,-1,-1,-1,-1,-1,-1,-1,-1,-1,-1,-1,-1,-1],"split_conditions":[6.4E4,1.02E2,2.5E1,4E0,1.6E4,4.0385284E0,1.6074524E1,4E0,4.8E1,3E3,3.6836383E0,2E3,4E1,3.1E3,6.4E1,3.4987931E0,2.2E2,-1.1410552E0,1.05E2,5E0,1.12E2,1.16E2,6E1,3.1595994E-2,1.0637699E0,3.2E4,2.6E1,-1.1135057E0,-5.9363246E-1,3.004519E-2,-6.22266E-1,1.8298341E-2,1.4633046E-1,-6.3803774E-1,-1.4072496E-1,6.4233875E-1,-2.1009807E-1,7.6821506E-1,-2.1225618E-1,2.400346E0,1.1735414E0],"split_indices":[2,6,0,3,1,0,0,4,3,2,0,2,6,1,0,0,6,0,0,4,0,0,0,0,0,2,5,0,0,0,0,0,0,0,0,0,0,0,0,0,0],"split_type":[0,0,0,0,0,0,0,0,0,0,0,0,0,0,0,0,0,0,0,0,0,0,0,0,0,0,0,0,0,0,0,0,0,0,0,0,0,0,0,0,0],"sum_hessian":[1.67E2,1.65E2,2E0,1.25E2,4E1,1E0,1E0,5.9E1,6.6E1,3.5E1,5E0,5E1,9E0,6.4E1,2E0,1E0,3.4E1,7E0,4.3E1,7E0,2E0,5.8E1,6E0,1E0,1E0,2.4E1,1E1,6E0,3.7E1,2E0,5E0,1E0,1E0,2.9E1,2.9E1,3E0,3E0,2E1,4E0,4E0,6E0],"tree_param":{"num_deleted":"0","num_feature":"7","num_nodes":"41","size_leaf_vector":"1"}},{"base_weights":[2.4420965E0,1.6942292E-1,1.2738267E2,-3.335549E0,1.9170639E1,3.836603E0,1.5270798E1,-4.4795732E0,9.336007E0,2.9829878E1,9.365207E0,-6.4738793E0,-2.7311513E0,1.8155161E0,5.7566605E0,3.8868343E1,1.782121E1,2.0310836E0,2.0027878E1,-7.023085E0,-3.0255418E0,-3.5048966E0,2.9885263E0,-5.932102E0,1.1613573E1,4.5092807E0,3.8730165E-1,2.0520325E-1,2.3718476E0,6.092601E0,-1.692028E0,2.2618592E0,3.537155E-1,-1.0412129E0,-6.24728E-1,-4.172921E-1,1.0426497E-1,-6.001916E-1,-1.053003E-1,5.7783943E-1,-1.943407E-1,5.854416E-2,-8.299764E-1,1.3887647E0,3.9522603E-1,3.0016327E-2,7.4656695E-1,-5.8108824E-1,1.8201199E-1],"categories":[],"categories_nodes":[],"categories_segments":[],"categories_sizes":[],"default_left":[0,0,0,0,0,0,0,0,0,0,0,0,0,0,0,0,0,0,0,0,0,0,0,0,0,0,0,0,0,0,0,0,0,0,0,0,0,0,0,0,0,0,0,0,0,0,0,0,0],"id":25,"left_children":[1,3,5,7,9,-1,-1,11,13,15,17,19,21,-1,23,25,27,29,31,33,35,37,39,41,43,-1,-1,-1,-1,45,47,-1,-1,-1,-1,-1,-1,-1,-1,-1,-1,-1,-1,-1,-1,-1,-1,-1,-1],"loss_changes":[4.7681875E4,1.1119335E4,9.043242E2,2.0858372E3,2.4381152E3,0E0,0E0,4.356145E2,2.7428857E2,6.097988E2,1.1323417E3,9.238208E1,3.2469012E2,0E0,7.534936E2,1.1323174E3,6.022942E2,1.6152368E2,1.7633105E2,6.90437E1,5.1028465E1,3.793927E2,1.3506476E2,6.658438E1,6.706909E1,0E0,0E0,0E0,0E0,3.752614E1,9.7372665E1,0E0,0E0,0E0,0E0,0E0,0E0,0E0,0E0,0E0,0E0,0E0,0E0,0E0,0E0,0E0,0E0,0E0,0E0],"parents":[2147483647,0,0,1,1,2,2,3,3,4,4,7,7,8,8,9,9,10,10,11,11,12,12,14,14,15,15,16,16,17,17,18,18,19,19,20,20,21,21,22,22,23,23,24,24,29,29,30,30],"right_children":[2,4,6,8,10,-1,-1,12,14,16,18,20,22,-1,24,26,28,30,32,34,36,38,40,42,44,-1,-1,-1,-1,46,48,-1,-1,-1,-1,-1,-1,-1,-1,-1,-1,-1,-1,-1,-1,-1,-1,-1,-1],"split_conditions":[6.4E4,6.4E1,2.5E1,5E3,4E1,3.836603E0,1.5270798E1,4E0,1.28E2,2.6E1,1.51E2,4E0,3.1E3,1.8155161E0,2E1,3.8E1,3.5E2,2E0,8.4E1,2E3,4E1,1.16E2,6E1,2.9E1,3E1,4.5092807E0,3.8730165E-1,2.0520325E-1,2.3718476E0,7.2E1,6E0,2.2618592E0,3.537155E-1,-1.0412129E0,-6.24728E-1,-4.172921E-1,1.0426497E-1,-6.001916E-1,-1.053003E-1,5.7783943E-1,-1.943407E-1,5.854416E-2,-8.299764E-1,1.3887647E0,3.9522603E-1,3.0016327E-2,7.4656695E-1,-5.8108824E-1,1.8201199E-1],"split_indices":[2,3,0,1,0,0,0,3,6,5,6,4,1,0,5,0,6,4,0,2,6,0,0,0,0,0,0,0,0,6,4,0,0,0,0,0,0,0,0,0,0,0,0,0,0,0,0,0,0],"split_type":[0,0,0,0,0,0,0,0,0,0,0,0,0,0,0,0,0,0,0,0,0,0,0,0,0,0,0,0,0,0,0,0,0,0,0,0,0,0,0,0,0,0,0,0,0,0,0,0,0],"sum_hessian":[1.67E2,1.65E2,2E0,1.4E2,2.5E1,1E0,1E0,1.29E2,1.1E1,1.1E1,1.4E1,5.9E1,7E1,2E0,9E0,5E0,6E0,9E0,5E0,5E1,9E0,6.2E1,8E0,3E0,6E0,4E0,1E0,2E0,4E0,4E0,5E0,4E0,1E0,7E0,4.3E1,7E0,2E0,3E1,3.2E1,5E0,3E0,1E0,2E0,4E0,2E0,1E0,3E0,2E0,3E0],"tree_param":{"num_deleted":"0","num_feature":"7","num_nodes":"49","size_leaf_vector":"1"}},{"base_weights":[2.3770607E0,2.1870846E-1,1.2101353E2,-2.9982557E0,1.7656141E1,3.6447723E0,1.4507257E1,-4.0493155E0,8.638078E0,2.746969E1,8.628224E0,-5.2386727E0,-1.5211114E0,1.6944815E0,5.2822485E0,3.5797607E1,1.6407236E1,1.8657265E0,1.8461016E1,-4.609837E0,-7.9916844E0,1.4509118E0,-2.2482388E0,-5.5317535E0,1.0707071E1,4.148538E0,3.679367E-1,1.9152324E-1,2.182099E0,5.638658E0,-1.5893377E0,2.5570152E0,8.5139126E-1,3.5905552E-1,-4.7713566E-1,-8.543777E-1,-1.3119698E-2,5.9775764E-1,-3.0342647E-1,-7.996796E-1,9.316864E-2,1.2776636E0,3.688774E-1,2.8515626E-2,6.9057447E-1,-5.423493E-1,1.6836129E-1],"categories":[],"categories_nodes":[],"categories_segments":[],"categories_sizes":[],"default_left":[0,0,0,0,0,0,0,0,0,0,0,0,0,0,0,0,0,0,0,0,0,0,0,0,0,0,0,0,0,0,0,0,0,0,0,0,0,0,0,0,0,0,0,0,0,0,0],"id":26,"left_children":[1,3,5,7,9,-1,-1,11,13,15,17,19,21,-1,23,25,27,29,31,33,35,-1,37,39,41,-1,-1,-1,-1,43,45,-1,-1,-1,-1,-1,-1,-1,-1,-1,-1,-1,-1,-1,-1,-1,-1],"loss_changes":[4.2991496E4,9.364806E3,8.1615234E2,1.7594758E3,2.0664785E3,0E0,0E0,3.829331E2,2.4500519E2,5.181875E2,9.629706E2,1.1550464E2,5.338287E2,0E0,6.458694E2,9.4344727E2,5.0740063E2,1.3931892E2,2.0658972E2,1.1514673E2,6.3974792E1,0E0,2.896972E2,7.118113E1,5.454358E1,0E0,0E0,0E0,0E0,3.194754E1,8.442505E1,0E0,0E0,0E0,0E0,0E0,0E0,0E0,0E0,0E0,0E0,0E0,0E0,0E0,0E0,0E0,0E0],"parents":[2147483647,0,0,1,1,2,2,3,3,4,4,7,7,8,8,9,9,10,10,11,11,12,12,14,14,15,15,16,16,17,17,18,18,19,19,20,20,22,22,23,23,24,24,29,29,30,30],"right_children":[2,4,6,8,10,-1,-1,12,14,16,18,20,22,-1,24,26,28,30,32,34,36,-1,38,40,42,-1,-1,-1,-1,44,46,-1,-1,-1,-1,-1,-1,-1,-1,-1,-1,-1,-1,-1,-1,-1,-1],"split_conditions":[6.4E4,6.4E1,2.5E1,5E3,4E1,3.6447723E0,1.4507257E1,4.7E1,1.28E2,2.6E1,1.51E2,8E2,4E0,1.6944815E0,2E1,3.8E1,3.5E2,2E0,1.75E2,1E0,1.31E3,1.4509118E0,5E1,3E1,3E1,4.148538E0,3.679367E-1,1.9152324E-1,2.182099E0,7.2E1,6E0,2.5570152E0,8.5139126E-1,3.5905552E-1,-4.7713566E-1,-8.543777E-1,-1.3119698E-2,5.9775764E-1,-3.0342647E-1,-7.996796E-1,9.316864E-2,1.2776636E0,3.688774E-1,2.8515626E-2,6.9057447E-1,-5.423493E-1,1.6836129E-1],"split_indices":[2,3,0,1,0,0,0,6,6,5,6,0,5,0,5,0,6,4,6,4,1,0,6,0,0,0,0,0,0,6,4,0,0,0,0,0,0,0,0,0,0,0,0,0,0,0,0],"split_type":[0,0,0,0,0,0,0,0,0,0,0,0,0,0,0,0,0,0,0,0,0,0,0,0,0,0,0,0,0,0,0,0,0,0,0,0,0,0,0,0,0,0,0,0,0,0,0],"sum_hessian":[1.67E2,1.65E2,2E0,1.4E2,2.5E1,1E0,1E0,1.29E2,1.1E1,1.1E1,1.4E1,8.7E1,4.2E1,2E0,9E0,5E0,6E0,9E0,5E0,7.3E1,1.4E1,1E0,4.1E1,3E0,6E0,4E0,1E0,2E0,4E0,4E0,5E0,2E0,3E0,1E0,7.2E1,1.3E1,1E0,3E0,3.8E1,2E0,1E0,4E0,2E0,1E0,3E0,2E0,3E0],"tree_param":{"num_deleted":"0","num_feature":"7","num_nodes":"47","size_leaf_vector":"1"}},{"base_weights":[2.3309605E0,2.8140256E-1,1.1496285E2,-2.6743584E0,1.6299898E1,3.4625337E0,1.3781894E1,-3.6385403E0,7.993811E0,2.52969E1,8.015636E0,-4.2103E0,1.0256379E0,1.5815156E0,4.848027E0,3.29706E1,1.5105599E1,1.713665E0,1.7182983E1,-7.1611804E-1,-3.5952284E0,-6.514058E0,4.3595324E0,-7.510946E0,8.876638E0,3.8166559E0,3.4953997E-1,1.7875468E0,2.0075312E0,5.2186127E0,-1.4927355E0,2.3865469E0,7.875374E-1,-3.1444782E-1,-8.2731104E-1,1.0521317E-2,-8.195179E-1,9.4972116E-1,1.2457514E-1,-1.215152E0,8.851013E-2,3.0601463E-1,1.1754504E0,5.518036E-2,2.1295166E-1,2.708969E-2,6.387817E-1,-5.0619256E-1,1.5573406E-1],"categories":[],"categories_nodes":[],"categories_segments":[],"categories_sizes":[],"default_left":[0,0,0,0,0,0,0,0,0,0,0,0,0,0,0,0,0,0,0,0,0,0,0,0,0,0,0,0,0,0,0,0,0,0,0,0,0,0,0,0,0,0,0,0,0,0,0,0,0],"id":27,"left_children":[1,3,5,7,9,-1,-1,11,13,15,17,19,21,-1,23,25,27,29,31,-1,33,35,37,39,41,-1,-1,43,-1,45,47,-1,-1,-1,-1,-1,-1,-1,-1,-1,-1,-1,-1,-1,-1,-1,-1,-1,-1],"loss_changes":[3.8749707E4,7.9031675E3,7.365781E2,1.47942E3,1.7351006E3,0E0,0E0,3.5100098E2,2.1857886E2,4.4041943E2,8.371394E2,1.8479419E2,4.054465E2,0E0,5.645669E2,7.855039E2,4.274226E2,1.2017266E2,1.852384E2,0E0,1.8062402E2,5.6501205E1,1.6414253E2,1.2764278E2,9.79422E1,0E0,0E0,9.26857E-2,0E0,2.719403E1,7.320094E1,0E0,0E0,0E0,0E0,0E0,0E0,0E0,0E0,0E0,0E0,0E0,0E0,0E0,0E0,0E0,0E0,0E0,0E0],"parents":[2147483647,0,0,1,1,2,2,3,3,4,4,7,7,8,8,9,9,10,10,11,11,12,12,14,14,15,15,16,16,17,17,18,18,20,20,21,21,22,22,23,23,24,24,27,27,29,29,30,30],"right_children":[2,4,6,8,10,-1,-1,12,14,16,18,20,22,-1,24,26,28,30,32,-1,34,36,38,40,42,-1,-1,44,-1,46,48,-1,-1,-1,-1,-1,-1,-1,-1,-1,-1,-1,-1,-1,-1,-1,-1,-1,-1],"split_conditions":[6.4E4,6.4E1,2.5E1,5E3,4E1,3.4625337E0,1.3781894E1,3.2E1,1.28E2,2.6E1,1.51E2,5E2,1E1,1.5815156E0,2.097E4,3.8E1,3.5E2,2E0,1.75E2,-7.1611804E-1,2.4E1,6.4E1,1.4E1,3E1,3.2E4,3.8166559E0,3.4953997E-1,2.9E1,2.0075312E0,7.2E1,6E0,2.3865469E0,7.875374E-1,-3.1444782E-1,-8.2731104E-1,1.0521317E-2,-8.195179E-1,9.4972116E-1,1.2457514E-1,-1.215152E0,8.851013E-2,3.0601463E-1,1.1754504E0,5.518036E-2,2.1295166E-1,2.708969E-2,6.387817E-1,-5.0619256E-1,1.5573406E-1],"split_indices":[2,3,0,1,0,0,0,3,6,5,6,1,5,0,2,0,6,4,6,0,3,0,5,0,2,0,0,0,0,6,4,0,0,0,0,0,0,0,0,0,0,0,0,0,0,0,0,0,0],"split_type":[0,0,0,0,0,0,0,0,0,0,0,0,0,0,0,0,0,0,0,0,0,0,0,0,0,0,0,0,0,0,0,0,0,0,0,0,0,0,0,0,0,0,0,0,0,0,0,0,0],"sum_hessian":[1.67E2,1.65E2,2E0,1.4E2,2.5E1,1E0,1E0,1.29E2,1.1E1,1.1E1,1.4E1,1.15E2,1.4E1,2E0,9E0,5E0,6E0,9E0,5E0,1.8E1,9.7E1,4E0,1E1,2E0,7E0,4E0,1E0,2E0,4E0,4E0,5E0,2E0,3E0,9E1,7E0,1E0,3E0,3E0,7E0,1E0,1E0,3E0,4E0,1E0,1E0,1E0,3E0,2E0,3E0],"tree_param":{"num_deleted":"0","num_feature":"7","num_nodes":"49","size_leaf_vector":"1"}},{"base_weights":[2.2616718E0,3.151611E-1,1.092147E2,-2.404484E0,1.5051884E1,3.2894075E0,1.3092798E1,-3.2869365E0,7.355793E0,-3.260714E-1,1.8728828E1,-5.068263E0,-1.9130535E0,1.4760814E0,4.3987074E0,-4.724462E-1,3.0542393E0,2.0728352E1,-1.7775218E-1,-5.864319E0,-2.501424E0,-2.5265853E0,2.866912E0,-7.1354012E0,8.17416E0,3.9007518E-1,2.5735093E-2,1.4972595E1,2.8456419E1,-2.8074607E-1,2.5408325E-1,-6.113272E-1,2.171381E-1,-3.2326114E-1,1.5008621E-1,-6.0658313E-2,-5.0215334E-1,5.244025E-1,-1.4154854E-1,-1.1543945E0,8.4084325E-2,2.830635E-1,1.0814148E0,1.8299189E0,5.9902066E-1,3.0901406E0,6.89325E-1],"categories":[],"categories_nodes":[],"categories_segments":[],"categories_sizes":[],"default_left":[0,0,0,0,0,0,0,0,0,0,0,0,0,0,0,0,0,0,0,0,0,0,0,0,0,0,0,0,0,0,0,0,0,0,0,0,0,0,0,0,0,0,0,0,0,0,0],"id":28,"left_children":[1,3,5,7,9,-1,-1,11,13,15,17,19,21,-1,23,-1,25,27,29,31,33,35,37,39,41,-1,-1,43,45,-1,-1,-1,-1,-1,-1,-1,-1,-1,-1,-1,-1,-1,-1,-1,-1,-1,-1],"loss_changes":[3.494069E4,6.689249E3,6.647578E2,1.2386084E3,1.4762476E3,0E0,0E0,3.0845776E2,1.978388E2,1.036372E2,7.975713E2,9.975818E1,2.2719308E2,0E0,4.9379077E2,0E0,8.466541E0,4.190703E2,2.8580544E1,9.72959E1,4.8748016E1,3.1790457E2,9.904051E1,1.15197525E2,8.2243774E1,0E0,0E0,2.7883398E2,1.5604004E2,0E0,0E0,0E0,0E0,0E0,0E0,0E0,0E0,0E0,0E0,0E0,0E0,0E0,0E0,0E0,0E0,0E0,0E0],"parents":[2147483647,0,0,1,1,2,2,3,3,4,4,7,7,8,8,9,9,10,10,11,11,12,12,14,14,16,16,17,17,18,18,19,19,20,20,21,21,22,22,23,23,24,24,27,27,28,28],"right_children":[2,4,6,8,10,-1,-1,12,14,16,18,20,22,-1,24,-1,26,28,30,32,34,36,38,40,42,-1,-1,44,46,-1,-1,-1,-1,-1,-1,-1,-1,-1,-1,-1,-1,-1,-1,-1,-1,-1,-1],"split_conditions":[6.4E4,6.4E1,2.5E1,5E3,1E1,3.2894075E0,1.3092798E1,2E0,1.28E2,6.5E1,8.4E1,3E0,3.1E3,1.4760814E0,2.097E4,-4.724462E-1,5.6E1,1.28E2,1.12E2,1.3E1,4E1,2E0,6E1,3E1,3.2E4,3.9007518E-1,2.5735093E-2,5.9E1,2.4E1,-2.8074607E-1,2.5408325E-1,-6.113272E-1,2.171381E-1,-3.2326114E-1,1.5008621E-1,-6.0658313E-2,-5.0215334E-1,5.244025E-1,-1.4154854E-1,-1.1543945E0,8.4084325E-2,2.830635E-1,1.0814148E0,1.8299189E0,5.9902066E-1,3.0901406E0,6.89325E-1],"split_indices":[2,3,0,1,5,0,0,3,6,3,0,4,1,0,2,0,0,3,0,5,6,4,0,0,2,0,0,0,4,0,0,0,0,0,0,0,0,0,0,0,0,0,0,0,0,0,0],"split_type":[0,0,0,0,0,0,0,0,0,0,0,0,0,0,0,0,0,0,0,0,0,0,0,0,0,0,0,0,0,0,0,0,0,0,0,0,0,0,0,0,0,0,0,0,0,0,0],"sum_hessian":[1.67E2,1.65E2,2E0,1.4E2,2.5E1,1E0,1E0,1.29E2,1.1E1,5E0,2E1,5.5E1,7.4E1,2E0,9E0,2E0,3E0,1.8E1,2E0,4.1E1,1.4E1,6.6E1,8E0,2E0,7E0,2E0,1E0,1.2E1,6E0,1E0,1E0,4E1,1E0,1.2E1,2E0,3.8E1,2.8E1,5E0,3E0,1E0,1E0,3E0,4E0,8E0,4E0,5E0,1E0],"tree_param":{"num_deleted":"0","num_feature":"7","num_nodes":"47","size_leaf_vector":"1"}},{"base_weights":[2.1755648E0,3.2670477E-1,1.0375397E2,-2.1567812E0,1.3782274E1,3.1249359E0,1.2438159E1,-2.9639916E0,6.767732E0,2.1421564E1,6.752024E0,-3.95214E0,-8.728042E-1,1.3776764E1,3.9882493E0,2.8662872E1,1.2154504E1,1.4152176E0,1.4521365E1,-6.885424E0,-3.4878035E0,1.3971214E0,-1.5588812E0,4.2521286E-1,1.6413018E0,-6.7786355E0,7.5273E0,3.314521E0,3.1255952E-1,5.8151245E-2,1.6981415E0,4.507158E0,-1.3972689E0,2.0634415E0,6.3062364E-1,-7.7196807E-1,-2.0875143E-1,-3.124344E-1,-8.169444E-1,6.1417073E-1,-2.308714E-1,-1.0966752E0,7.987976E-2,1.3680245E0,4.6939874E-1,-3.9074708E-2,4.7797393E-2,2.4448395E-2,5.511705E-1,-4.4095E-1,1.21122174E-1],"categories":[],"categories_nodes":[],"categories_segments":[],"categories_sizes":[],"default_left":[0,0,0,0,0,0,0,0,0,0,0,0,0,0,0,0,0,0,0,0,0,0,0,0,0,0,0,0,0,0,0,0,0,0,0,0,0,0,0,0,0,0,0,0,0,0,0,0,0,0,0],"id":29,"left_children":[1,3,5,7,9,-1,-1,11,13,15,17,19,21,23,25,27,29,31,33,35,37,-1,39,-1,-1,41,43,-1,-1,45,-1,47,49,-1,-1,-1,-1,-1,-1,-1,-1,-1,-1,-1,-1,-1,-1,-1,-1,-1,-1],"loss_changes":[3.1517217E4,5.5769E3,5.999492E2,1.0358181E3,1.2517197E3,0E0,0E0,2.651831E2,1.7883264E2,4.5688525E2,6.014012E2,9.584375E1,4.5969745E2,5.537842E0,4.3207034E2,5.832012E2,4.0772864E2,9.325812E1,1.7119153E2,2.791455E1,1.0719977E2,0E0,2.5669385E2,0E0,0E0,1.0396571E2,7.5250824E1,0E0,0E0,7.5214005E-1,0E0,2.0062767E1,5.248514E1,0E0,0E0,0E0,0E0,0E0,0E0,0E0,0E0,0E0,0E0,0E0,0E0,0E0,0E0,0E0,0E0,0E0,0E0],"parents":[2147483647,0,0,1,1,2,2,3,3,4,4,7,7,8,8,9,9,10,10,11,11,12,12,13,13,14,14,15,15,16,16,17,17,18,18,19,19,20,20,22,22,25,25,26,26,29,29,31,31,32,32],"right_children":[2,4,6,8,10,-1,-1,12,14,16,18,20,22,24,26,28,30,32,34,36,38,-1,40,-1,-1,42,44,-1,-1,46,-1,48,50,-1,-1,-1,-1,-1,-1,-1,-1,-1,-1,-1,-1,-1,-1,-1,-1,-1,-1],"split_conditions":[6.4E4,6.4E1,2.5E1,5E3,4E1,3.1249359E0,1.2438159E1,4.7E1,1.28E2,2.6E1,1.51E2,2E3,4E0,2.9E1,2.097E4,3.8E1,3.5E2,2E0,1.75E2,4E0,4.5E1,1.3971214E0,5E1,4.2521286E-1,1.6413018E0,3E1,1E0,3.314521E0,3.1255952E-1,2.9E1,1.6981415E0,7.2E1,6E0,2.0634415E0,6.3062364E-1,-7.7196807E-1,-2.0875143E-1,-3.124344E-1,-8.169444E-1,6.1417073E-1,-2.308714E-1,-1.0966752E0,7.987976E-2,1.3680245E0,4.6939874E-1,-3.9074708E-2,4.7797393E-2,2.4448395E-2,5.511705E-1,-4.4095E-1,1.21122174E-1],"split_indices":[2,3,0,1,0,0,0,6,6,5,6,2,5,0,2,0,6,4,6,4,6,0,6,0,0,0,3,0,0,0,0,6,4,0,0,0,0,0,0,0,0,0,0,0,0,0,0,0,0,0,0],"split_type":[0,0,0,0,0,0,0,0,0,0,0,0,0,0,0,0,0,0,0,0,0,0,0,0,0,0,0,0,0,0,0,0,0,0,0,0,0,0,0,0,0,0,0,0,0,0,0,0,0,0,0],"sum_hessian":[1.67E2,1.65E2,2E0,1.4E2,2.5E1,1E0,1E0,1.29E2,1.1E1,1.1E1,1.4E1,8.7E1,4.2E1,2E0,9E0,5E0,6E0,9E0,5E0,1E1,7.7E1,1E0,4.1E1,1E0,1E0,2E0,7E0,4E0,1E0,2E0,4E0,4E0,5E0,2E0,3E0,8E0,2E0,7.3E1,4E0,3E0,3.8E1,1E0,1E0,1E0,6E0,1E0,1E0,1E0,3E0,2E0,3E0],"tree_param":{"num_deleted":"0","num_feature":"7","num_nodes":"51","size_leaf_vector":"1"}},{"base_weights":[2.1151772E0,3.593432E-1,9.856626E1,-1.9229646E0,1.2722653E1,2.968689E0,1.1816251E1,-3.075401E0,3.547357E0,-3.0395254E-1,1.5838699E1,-5.6678176E-1,-2.546802E0,5.867053E-1,6.7058377E0,-4.1155344E-1,2.630722E0,1.757216E1,-4.194514E-1,-4.6688137E0,-1.2601159E0,5.5831224E-1,-1.2835103E0,1.3087926E1,4.1206274E0,3.3527884E-1,2.3226166E-2,1.2534825E1,2.4416903E1,-2.7276498E-1,2.0984726E-1,-5.8916354E-1,5.0036907E-2,-2.3259676E-1,4.6214953E-1,-4.801509E-1,1.4127044E-1,4.0395203E-1,1.5592369E0,-1.0418411E0,6.893678E-1,1.5193595E0,5.242075E-1,2.658655E0,5.699509E-1],"categories":[],"categories_nodes":[],"categories_segments":[],"categories_sizes":[],"default_left":[0,0,0,0,0,0,0,0,0,0,0,0,0,0,0,0,0,0,0,0,0,0,0,0,0,0,0,0,0,0,0,0,0,0,0,0,0,0,0,0,0,0,0,0,0],"id":30,"left_children":[1,3,5,7,9,-1,-1,11,13,15,17,-1,19,21,23,-1,25,27,29,31,33,-1,35,37,39,-1,-1,41,43,-1,-1,-1,-1,-1,-1,-1,-1,-1,-1,-1,-1,-1,-1,-1,-1],"loss_changes":[2.8415732E4,4.7084673E3,5.414551E2,8.9980164E2,1.0601929E3,0E0,0E0,1.45896E2,2.2984473E2,7.7941345E1,5.9921094E2,0E0,2.6442267E2,1.3798727E2,1.4405798E2,0E0,6.1486645E0,3.4904443E2,2.3159502E1,2.3682452E2,4.0569174E2,0E0,1.111212E2,4.997986E0,4.7499597E2,0E0,0E0,1.724209E2,1.3274072E2,0E0,0E0,0E0,0E0,0E0,0E0,0E0,0E0,0E0,0E0,0E0,0E0,0E0,0E0,0E0,0E0],"parents":[2147483647,0,0,1,1,2,2,3,3,4,4,7,7,8,8,9,9,10,10,12,12,13,13,14,14,16,16,17,17,18,18,19,19,20,20,22,22,23,23,24,24,27,27,28,28],"right_children":[2,4,6,8,10,-1,-1,12,14,16,18,-1,20,22,24,-1,26,28,30,32,34,-1,36,38,40,-1,-1,42,44,-1,-1,-1,-1,-1,-1,-1,-1,-1,-1,-1,-1,-1,-1,-1,-1],"split_conditions":[6.4E4,6.4E1,2.5E1,8.1E1,1E1,2.968689E0,1.1816251E1,5E2,7E0,6.5E1,8.4E1,-5.6678176E-1,1.15E2,8.6E1,1.28E2,-4.1155344E-1,5.6E1,1.28E2,1.12E2,5E0,4.7E1,5.5831224E-1,3E1,2.9E1,2.097E4,3.3527884E-1,2.3226166E-2,5.9E1,2.4E1,-2.7276498E-1,2.0984726E-1,-5.8916354E-1,5.0036907E-2,-2.3259676E-1,4.6214953E-1,-4.801509E-1,1.4127044E-1,4.0395203E-1,1.5592369E0,-1.0418411E0,6.893678E-1,1.5193595E0,5.242075E-1,2.658655E0,5.699509E-1],"split_indices":[2,3,0,6,5,0,0,1,4,3,0,0,0,6,6,0,0,3,0,4,6,0,3,0,2,0,0,0,4,0,0,0,0,0,0,0,0,0,0,0,0,0,0,0,0],"split_type":[0,0,0,0,0,0,0,0,0,0,0,0,0,0,0,0,0,0,0,0,0,0,0,0,0,0,0,0,0,0,0,0,0,0,0,0,0,0,0,0,0,0,0,0,0],"sum_hessian":[1.67E2,1.65E2,2E0,1.4E2,2.5E1,1E0,1E0,1.16E2,2.4E1,5E0,2E1,1.8E1,9.8E1,1.3E1,1.1E1,2E0,3E0,1.8E1,2E0,3.6E1,6.2E1,3E0,1E1,2E0,9E0,2E0,1E0,1.2E1,6E0,1E0,1E0,2.9E1,7E0,5.3E1,9E0,4E0,6E0,1E0,1E0,1E0,8E0,8E0,4E0,5E0,1E0],"tree_param":{"num_deleted":"0","num_feature":"7","num_nodes":"45","size_leaf_vector":"1"}},{"base_weights":[2.0280352E0,3.6021715E-1,9.363796E1,-1.7239028E0,1.16487055E1,2.8202546E0,1.122544E1,5.125893E0,-2.5193598E0,1.8129183E1,5.687743E0,-4.8792648E-1,6.189066E0,-3.8499985E0,-1.4494275E0,2.4952553E1,9.690698E0,1.1633285E0,1.2280477E1,3.9916747E0,1.0684626E1,-7.302579E0,-3.2077405E0,-4.1745667E0,-4.6374097E-1,2.8822393E0,2.801674E-1,-1.3374278E-1,1.4369434E0,5.6342034E0,-6.5866566E-1,1.786611E0,5.0211334E-1,-4.327774E-3,8.842273E-1,4.371E-1,1.4812752E0,-2.1105738E-1,-7.7427834E-1,-4.7155508E-1,-1.2982352E-1,3.1142923E-1,-8.6859256E-1,1.0378445E0,-1.7818914E-1,2.2064973E-2,8.230656E-1,2.7892253E-1,-2.2728336E-1],"categories":[],"categories_nodes":[],"categories_segments":[],"categories_sizes":[],"default_left":[0,0,0,0,0,0,0,0,0,0,0,0,0,0,0,0,0,0,0,0,0,0,0,0,0,0,0,0,0,0,0,0,0,0,0,0,0,0,0,0,0,0,0,0,0,0,0,0,0],"id":31,"left_children":[1,3,5,7,9,-1,-1,11,13,15,17,-1,19,21,23,25,27,29,31,33,35,37,39,41,43,-1,-1,-1,-1,45,47,-1,-1,-1,-1,-1,-1,-1,-1,-1,-1,-1,-1,-1,-1,-1,-1,-1,-1],"loss_changes":[2.563477E4,3.925491E3,4.886621E2,7.8118317E2,9.012627E2,0E0,0E0,1.8975632E2,1.7522876E2,4.4913892E2,4.3313766E2,0E0,9.5649475E1,1.0075226E2,1.9146565E2,4.335713E2,3.804018E2,8.517014E1,1.5358002E2,2.1567395E2,3.9507263E1,1.942627E0,1.3495752E2,6.518209E2,7.9024133E2,0E0,0E0,0E0,0E0,4.0351997E1,5.0863247E1,0E0,0E0,0E0,0E0,0E0,0E0,0E0,0E0,0E0,0E0,0E0,0E0,0E0,0E0,0E0,0E0,0E0,0E0],"parents":[2147483647,0,0,1,1,2,2,3,3,4,4,7,7,8,8,9,9,10,10,12,12,13,13,14,14,15,15,16,16,17,17,18,18,19,19,20,20,21,21,22,22,23,23,24,24,29,29,30,30],"right_children":[2,4,6,8,10,-1,-1,12,14,16,18,-1,20,22,24,26,28,30,32,34,36,38,40,42,44,-1,-1,-1,-1,46,48,-1,-1,-1,-1,-1,-1,-1,-1,-1,-1,-1,-1,-1,-1,-1,-1,-1,-1],"split_conditions":[6.4E4,6.4E1,2.5E1,5E1,4E1,2.8202546E0,1.122544E1,2E0,2E0,2.6E1,1.51E2,-4.8792648E-1,3E1,1.05E2,5.7E1,3.8E1,3.5E2,7.6E1,1.75E2,3.2E4,5E3,2.62E2,1E3,2E0,7.5E1,2.8822393E0,2.801674E-1,-1.3374278E-1,1.4369434E0,6.4E1,6E1,1.786611E0,5.0211334E-1,-4.327774E-3,8.842273E-1,4.371E-1,1.4812752E0,-2.1105738E-1,-7.7427834E-1,-4.7155508E-1,-1.2982352E-1,3.1142923E-1,-8.6859256E-1,1.0378445E0,-1.7818914E-1,2.2064973E-2,8.230656E-1,2.7892253E-1,-2.2728336E-1],"split_indices":[2,3,0,0,0,0,0,4,3,5,6,0,0,0,0,0,6,6,6,2,1,1,1,4,0,0,0,0,0,0,0,0,0,0,0,0,0,0,0,0,0,0,0,0,0,0,0,0,0],"split_type":[0,0,0,0,0,0,0,0,0,0,0,0,0,0,0,0,0,0,0,0,0,0,0,0,0,0,0,0,0,0,0,0,0,0,0,0,0,0,0,0,0,0,0,0,0,0,0,0,0],"sum_hessian":[1.67E2,1.65E2,2E0,1.4E2,2.5E1,1E0,1E0,1.4E1,1.26E2,1.1E1,1.4E1,1E0,1.3E1,5.5E1,7.1E1,5E0,6E0,9E0,5E0,1E1,3E0,7E0,4.8E1,1.8E1,5.3E1,4E0,1E0,2E0,4E0,2E0,7E0,2E0,3E0,6E0,4E0,2E0,1E0,1E0,6E0,2.6E1,2.2E1,7E0,1.1E1,5E0,4.8E1,1E0,1E0,2E0,5E0],"tree_param":{"num_deleted":"0","num_feature":"7","num_nodes":"49","size_leaf_vector":"1"}},{"base_weights":[1.9604871E0,3.7646797E-1,8.8956055E1,-1.5442351E0,1.0778109E1,2.679242E0,1.0664166E1,4.767327E0,-2.2775357E0,-3.034973E-1,1.3431039E1,-4.6353015E-1,5.7700357E0,-1.8536735E0,-5.3187957E0,-3.6896464E-1,2.3119888E0,1.5322278E1,1.5627003E0,3.6724985E0,1.0095755E1,-4.2775607E0,-1.2206726E0,-5.774659E0,5.3164482E-2,2.9429066E-1,2.0961761E-2,1.0753098E1,2.0966263E1,3.7353516E-1,-2.4776268E-1,1.0699433E0,9.221318E-2,4.0795976E-1,1.4072113E0,7.801056E-5,-8.1994385E-1,9.5135766E-1,-1.9553798E-1,-2.8884655E-1,-6.299215E-1,1.3756709E0,5.456701E-1,2.2895286E0,4.69606E-1],"categories":[],"categories_nodes":[],"categories_segments":[],"categories_sizes":[],"default_left":[0,0,0,0,0,0,0,0,0,0,0,0,0,0,0,0,0,0,0,0,0,0,0,0,0,0,0,0,0,0,0,0,0,0,0,0,0,0,0,0,0,0,0,0,0],"id":32,"left_children":[1,3,5,7,9,-1,-1,11,13,15,17,-1,19,21,23,-1,25,27,29,31,33,35,37,39,-1,-1,-1,41,43,-1,-1,-1,-1,-1,-1,-1,-1,-1,-1,-1,-1,-1,-1,-1,-1],"loss_changes":[2.3117357E4,3.3330688E3,4.4101758E2,6.634442E2,7.684431E2,0E0,0E0,1.6816742E2,1.5385327E2,6.166898E1,4.474192E2,0E0,8.995035E1,1.6815695E2,4.3075104E1,0E0,4.6888084E0,2.3873877E2,4.43677E1,2.0272682E2,3.8281036E1,3.8592636E2,7.36277E2,3.0005493E0,0E0,0E0,0E0,1.15833496E2,1.1218164E2,0E0,0E0,0E0,0E0,0E0,0E0,0E0,0E0,0E0,0E0,0E0,0E0,0E0,0E0,0E0,0E0],"parents":[2147483647,0,0,1,1,2,2,3,3,4,4,7,7,8,8,9,9,10,10,12,12,13,13,14,14,16,16,17,17,18,18,19,19,20,20,21,21,22,22,23,23,27,27,28,28],"right_children":[2,4,6,8,10,-1,-1,12,14,16,18,-1,20,22,24,-1,26,28,30,32,34,36,38,40,-1,-1,-1,42,44,-1,-1,-1,-1,-1,-1,-1,-1,-1,-1,-1,-1,-1,-1,-1,-1],"split_conditions":[6.4E4,6.4E1,2.5E1,5E1,1E1,2.679242E0,1.0664166E1,2E0,8E2,6.5E1,4.8E1,-4.6353015E-1,3E1,5.7E1,1.31E3,-3.6896464E-1,5.6E1,6.5E1,5E3,1E0,5E3,7E0,7.5E1,1E0,5.3164482E-2,2.9429066E-1,2.0961761E-2,2.6E1,2.4E1,3.7353516E-1,-2.4776268E-1,1.0699433E0,9.221318E-2,4.0795976E-1,1.4072113E0,7.801056E-5,-8.1994385E-1,9.5135766E-1,-1.9553798E-1,-2.8884655E-1,-6.299215E-1,1.3756709E0,5.456701E-1,2.2895286E0,4.69606E-1],"split_indices":[2,3,0,0,5,0,0,4,0,3,5,0,0,0,1,0,0,3,1,3,1,5,0,4,0,0,0,5,4,0,0,0,0,0,0,0,0,0,0,0,0,0,0,0,0],"split_type":[0,0,0,0,0,0,0,0,0,0,0,0,0,0,0,0,0,0,0,0,0,0,0,0,0,0,0,0,0,0,0,0,0,0,0,0,0,0,0,0,0,0,0,0,0],"sum_hessian":[1.67E2,1.65E2,2E0,1.4E2,2.5E1,1E0,1E0,1.4E1,1.26E2,5E0,2E1,1E0,1.3E1,1.12E2,1.4E1,2E0,3E0,1.7E1,3E0,1E1,3E0,2.2E1,9E1,1.3E1,1E0,2E0,1E0,1.1E1,6E0,2E0,1E0,2E0,8E0,2E0,1E0,1.1E1,1.1E1,5E0,8.5E1,3E0,1E1,6E0,5E0,5E0,1E0],"tree_param":{"num_deleted":"0","num_feature":"7","num_nodes":"45","size_leaf_vector":"1"}},{"base_weights":[1.8815818E0,3.7699413E-1,8.450824E1,-1.9928187E0,7.421033E0,2.545279E0,1.0130958E1,-2.6441257E0,1.5779038E-1,5.5164027E0,1.7929413E1,-4.3572063E0,-2.0759501E0,-4.1693096E0,1.6560081E0,1.9883775E0,4.564982E0,6.3825077E-1,2.2107239E0,-5.09069E0,-1.430554E0,-4.6387777E0,-1.5051E0,-5.207986E0,1.5507126E-1,1.3228444E0,5.286955E-1,2.6598003E0,8.65314E0,-3.7360212E-1,-6.685738E-1,1.9595051E-1,-2.500467E-1,-3.9607715E-2,-4.9593297E-1,-8.175073E-2,-4.9988317E-1,-8.9146155E-1,-3.1044453E-1,1.2395306E0,-6.266338E-2,3.306019E-2,6.3534576E-1,1.3121856E0,4.2250368E-1],"categories":[],"categories_nodes":[],"categories_segments":[],"categories_sizes":[],"default_left":[0,0,0,0,0,0,0,0,0,0,0,0,0,0,0,0,0,0,0,0,0,0,0,0,0,0,0,0,0,0,0,0,0,0,0,0,0,0,0,0,0,0,0,0,0],"id":33,"left_children":[1,3,5,7,9,-1,-1,11,13,15,17,19,21,23,25,-1,27,-1,-1,29,31,33,35,37,-1,-1,39,41,43,-1,-1,-1,-1,-1,-1,-1,-1,-1,-1,-1,-1,-1,-1,-1,-1],"loss_changes":[2.085374E4,2.7858354E3,3.9801953E2,1.7550555E2,7.417063E2,0E0,0E0,8.439435E1,2.0139256E2,4.1499927E2,1.4834607E2,4.2090454E1,1.0127948E2,5.560611E1,2.930585E2,0E0,2.5737695E2,0E0,0E0,1.3915649E1,2.6662083E1,1.571579E1,1.4485385E2,2.6904404E1,0E0,0E0,3.0938385E2,2.2158432E2,1.6222705E2,0E0,0E0,0E0,0E0,0E0,0E0,0E0,0E0,0E0,0E0,0E0,0E0,0E0,0E0,0E0,0E0],"parents":[2147483647,0,0,1,1,2,2,3,3,4,4,7,7,8,8,9,9,10,10,11,11,12,12,13,13,14,14,16,16,19,19,20,20,21,21,22,22,23,23,26,26,27,27,28,28],"right_children":[2,4,6,8,10,-1,-1,12,14,16,18,20,22,24,26,-1,28,-1,-1,30,32,34,36,38,-1,-1,40,42,44,-1,-1,-1,-1,-1,-1,-1,-1,-1,-1,-1,-1,-1,-1,-1,-1],"split_conditions":[6.4E4,1.01E2,2.5E1,1.6E1,1.6E4,2.545279E0,1.0130958E1,2.62E3,4.8E1,3E3,2.5E1,2E0,5E2,1.75E2,4E0,1.9883775E0,2.2E2,6.3825077E-1,2.2107239E0,3E0,1E1,3.5E3,5.6E1,1.05E2,1.5507126E-1,1.3228444E0,5E1,6.4E1,2.6E1,-3.7360212E-1,-6.685738E-1,1.9595051E-1,-2.500467E-1,-3.9607715E-2,-4.9593297E-1,-8.175073E-2,-4.9988317E-1,-8.9146155E-1,-3.1044453E-1,1.2395306E0,-6.266338E-2,3.306019E-2,6.3534576E-1,1.3121856E0,4.2250368E-1],"split_indices":[2,6,0,3,1,0,0,2,6,2,0,4,1,0,5,0,6,0,0,5,5,2,6,0,0,0,6,0,5,0,0,0,0,0,0,0,0,0,0,0,0,0,0,0,0],"split_type":[0,0,0,0,0,0,0,0,0,0,0,0,0,0,0,0,0,0,0,0,0,0,0,0,0,0,0,0,0,0,0,0,0,0,0,0,0,0,0,0,0,0,0,0,0],"sum_hessian":[1.67E2,1.65E2,2E0,1.24E2,4.1E1,1E0,1E0,9.5E1,2.9E1,3.6E1,5E0,2.2E1,7.3E1,7E0,2.2E1,1E0,3.5E1,2E0,3E0,1.7E1,5E0,1.2E1,6.1E1,6E0,1E0,1E0,2.1E1,2.5E1,1E1,1.1E1,6E0,1E0,4E0,1E0,1.1E1,5.2E1,9E0,1E0,5E0,1E0,2E1,1.6E1,9E0,4E0,6E0],"tree_param":{"num_deleted":"0","num_feature":"7","num_nodes":"45","size_leaf_vector":"1"}},{"base_weights":[1.8074468E0,3.78329E-1,8.0282814E1,-1.246856E0,9.177281E0,2.4180145E0,9.624408E0,4.3124533E0,-1.8936496E0,-5.068855E-1,1.1507173E1,2.210865E0,9.539104E0,-3.96915E0,-1.4209813E0,-3.4657085E-1,1.838953E0,1.2869334E1,-9.555766E-1,-1.2772255E0,7.349637E0,3.8174897E-1,1.3351974E0,-4.6395197E0,-1.2965151E0,-3.7930505E0,-7.8280866E-1,2.2982942E-1,2.3046494E-2,9.013192E0,1.8192265E1,-2.6714173E-1,1.2380524E-1,1.3854457E-1,-9.957962E-1,1.1018372E0,3.6778602E-1,-5.945737E-1,-3.2677698E-1,1.8615304E-1,-2.3004304E-1,-9.982427E-2,-9.6393186E-1,8.512502E-1,-1.4788727E-1,1.2565731E0,5.2221394E-1,1.9807643E0,4.25E-1],"categories":[],"categories_nodes":[],"categories_segments":[],"categories_sizes":[],"default_left":[0,0,0,0,0,0,0,0,0,0,0,0,0,0,0,0,0,0,0,0,0,0,0,0,0,0,0,0,0,0,0,0,0,0,0,0,0,0,0,0,0,0,0,0,0,0,0,0,0],"id":34,"left_children":[1,3,5,7,9,-1,-1,11,13,15,17,19,21,23,25,-1,27,29,31,33,35,-1,-1,37,39,41,43,-1,-1,45,47,-1,-1,-1,-1,-1,-1,-1,-1,-1,-1,-1,-1,-1,-1,-1,-1,-1,-1],"loss_changes":[1.8810918E4,2.3852302E3,3.592129E2,5.151635E2,5.9247217E2,0E0,0E0,1.4367435E2,1.1894986E2,4.80188E1,3.6879932E2,2.2448117E2,3.6292084E1,3.519284E1,1.5597868E2,0E0,2.425702E0,2.260232E2,1.4599108E1,1.987078E2,2.6829834E1,0E0,0E0,1.2823151E1,2.330478E1,3.498399E2,5.5607996E2,0E0,0E0,1.0946228E2,7.3471924E1,0E0,0E0,0E0,0E0,0E0,0E0,0E0,0E0,0E0,0E0,0E0,0E0,0E0,0E0,0E0,0E0,0E0,0E0],"parents":[2147483647,0,0,1,1,2,2,3,3,4,4,7,7,8,8,9,9,10,10,11,11,12,12,13,13,14,14,16,16,17,17,18,18,19,19,20,20,23,23,24,24,25,25,26,26,29,29,30,30],"right_children":[2,4,6,8,10,-1,-1,12,14,16,18,20,22,24,26,-1,28,30,32,34,36,-1,-1,38,40,42,44,-1,-1,46,48,-1,-1,-1,-1,-1,-1,-1,-1,-1,-1,-1,-1,-1,-1,-1,-1,-1,-1],"split_conditions":[6.4E4,6.4E1,2.5E1,5E1,1E1,2.4180145E0,9.624408E0,3E1,2.62E3,6.5E1,8.4E1,3.2E4,5E3,2E0,5.7E1,-3.4657085E-1,5.6E1,1.28E2,1.12E2,2.9E1,2.9E1,3.8174897E-1,1.3351974E0,2E3,1E1,1.2E1,7.5E1,2.2982942E-1,2.3046494E-2,3.8E1,2.4E1,-2.6714173E-1,1.2380524E-1,1.3854457E-1,-9.957962E-1,1.1018372E0,3.6778602E-1,-5.945737E-1,-3.2677698E-1,1.8615304E-1,-2.3004304E-1,-9.982427E-2,-9.6393186E-1,8.512502E-1,-1.4788727E-1,1.2565731E0,5.2221394E-1,1.9807643E0,4.25E-1],"split_indices":[2,3,0,0,5,0,0,0,2,3,0,2,1,4,0,0,0,3,0,0,0,0,0,2,5,5,0,0,0,0,4,0,0,0,0,0,0,0,0,0,0,0,0,0,0,0,0,0,0],"split_type":[0,0,0,0,0,0,0,0,0,0,0,0,0,0,0,0,0,0,0,0,0,0,0,0,0,0,0,0,0,0,0,0,0,0,0,0,0,0,0,0,0,0,0,0,0,0,0,0,0],"sum_hessian":[1.67E2,1.65E2,2E0,1.4E2,2.5E1,1E0,1E0,1.4E1,1.26E2,5E0,2E1,1.1E1,3E0,2.2E1,1.04E2,2E0,3E0,1.8E1,2E0,7E0,4E0,2E0,1E0,1.7E1,5E0,2.1E1,8.3E1,2E0,1E0,1.2E1,6E0,1E0,1E0,6E0,1E0,1E0,3E0,7E0,1E1,1E0,4E0,1.5E1,6E0,5E0,7.8E1,5E0,7E0,5E0,1E0],"tree_param":{"num_deleted":"0","num_feature":"7","num_nodes":"49","size_leaf_vector":"1"}},{"base_weights":[1.727855E0,3.7032297E-1,7.626868E1,-1.6404259E0,6.3458776E0,2.2971132E0,9.143188E0,-2.2495599E0,2.0016837E-1,4.718656E0,1.5322764E1,-1.8503414E0,-4.228754E0,-1.4876194E0,4.6786947E0,1.7899201E0,3.8553298E0,5.1193035E-1,1.9144669E0,7.9677635E-1,-2.2398837E0,-4.6193624E0,6.1988067E-2,1.3323281E0,-5.5687785E0,7.6210794E0,-3.7464345E-1,2.223411E0,7.3621078E0,2.363359E-1,-7.434525E-1,-3.9594135E-1,-1.3141689E-1,-2.079597E-1,-5.122971E-1,8.879957E-1,-2.2195335E-1,-8.455122E-1,-2.2353624E-1,1.3693621E0,-3.567314E-2,1.9303938E-2,5.4527014E-1,1.1450018E0,3.3904418E-1],"categories":[],"categories_nodes":[],"categories_segments":[],"categories_sizes":[],"default_left":[0,0,0,0,0,0,0,0,0,0,0,0,0,0,0,0,0,0,0,0,0,0,0,0,0,0,0,0,0,0,0,0,0,0,0,0,0,0,0,0,0,0,0,0,0],"id":35,"left_children":[1,3,5,7,9,-1,-1,11,13,15,17,19,21,23,25,-1,27,-1,-1,29,31,33,-1,35,37,39,-1,41,43,-1,-1,-1,-1,-1,-1,-1,-1,-1,-1,-1,-1,-1,-1,-1,-1],"loss_changes":[1.6971938E4,2.0049562E3,3.2419336E2,1.4059637E2,5.412075E2,0E0,0E0,6.64476E1,2.4884178E2,3.5201978E2,1.3597253E2,8.42778E1,3.1272186E1,2.8362717E2,2.5166162E2,0E0,1.89651E2,0E0,0E0,1.5941557E2,1.0622226E2,7.25296E0,0E0,4.218314E2,7.73136E1,3.4400403E2,0E0,1.6942058E2,1.3977332E2,0E0,0E0,0E0,0E0,0E0,0E0,0E0,0E0,0E0,0E0,0E0,0E0,0E0,0E0,0E0,0E0],"parents":[2147483647,0,0,1,1,2,2,3,3,4,4,7,7,8,8,9,9,10,10,11,11,12,12,13,13,14,14,16,16,19,19,20,20,21,21,23,23,24,24,25,25,27,27,28,28],"right_children":[2,4,6,8,10,-1,-1,12,14,16,18,20,22,24,26,-1,28,-1,-1,30,32,34,-1,36,38,40,-1,42,44,-1,-1,-1,-1,-1,-1,-1,-1,-1,-1,-1,-1,-1,-1,-1,-1],"split_conditions":[6.4E4,1.01E2,2.5E1,9E0,1.6E4,2.2971132E0,9.143188E0,8E2,1.24E2,3E3,2.5E1,3E0,1.31E3,8.4E1,1.4E1,1.7899201E0,2.2E2,5.1193035E-1,1.9144669E0,2.3E3,2.7E1,1E0,6.1988067E-2,1.048E4,1.05E2,1.75E2,-3.7464345E-1,6.4E1,2.6E1,2.363359E-1,-7.434525E-1,-3.9594135E-1,-1.3141689E-1,-2.079597E-1,-5.122971E-1,8.879957E-1,-2.2195335E-1,-8.455122E-1,-2.2353624E-1,1.3693621E0,-3.567314E-2,1.9303938E-2,5.4527014E-1,1.1450018E0,3.3904418E-1],"split_indices":[2,6,0,3,1,0,0,0,0,2,0,5,1,0,5,0,6,0,0,1,6,4,0,2,0,0,0,0,5,0,0,0,0,0,0,0,0,0,0,0,0,0,0,0,0],"split_type":[0,0,0,0,0,0,0,0,0,0,0,0,0,0,0,0,0,0,0,0,0,0,0,0,0,0,0,0,0,0,0,0,0,0,0,0,0,0,0,0,0,0,0,0,0],"sum_hessian":[1.67E2,1.65E2,2E0,1.24E2,4.1E1,1E0,1E0,9.3E1,3.1E1,3.6E1,5E0,7.9E1,1.4E1,2.3E1,8E0,1E0,3.5E1,2E0,3E0,1E1,6.9E1,1.3E1,1E0,1.4E1,9E0,6E0,2E0,2.5E1,1E1,9E0,1E0,2.3E1,4.6E1,3E0,1E1,4E0,1E1,4E0,5E0,3E0,3E0,1.6E1,9E0,4E0,6E0],"tree_param":{"num_deleted":"0","num_feature":"7","num_nodes":"45","size_leaf_vector":"1"}},{"base_weights":[1.6536919E0,3.6418378E-1,7.245524E1,7.662157E0,-1.0458838E0,2.1822572E0,8.686029E0,1.7894875E0,1.0499076E1,-1.5759645E0,4.253824E0,-8.282852E-1,1.2674721E0,1.6392471E1,5.2585087E0,-1.4237324E0,-7.4443895E-1,-3.0684388E0,7.8491006E0,1.3061426E0,-5.5325217E0,2.0680344E0,2.3525696E-1,1.1001021E0,1.0028577E1,-2.0674365E0,6.523426E-2,-7.7794546E-1,2.66539E-1,1.3224256E1,9.04126E-1,-4.15716E-1,2.9095528E-1,-9.469719E-1,1.1709366E-1,3.6664003E-1,-3.5437623E-1,5.517502E-1,1.4036438E0,-1.7935519E-1,-6.2552136E-1,1.1956284E0,-5.6232717E-2,1.5941807E0,1.17702484E-1,-3.559227E-1,2.909771E-1],"categories":[],"categories_nodes":[],"categories_segments":[],"categories_sizes":[],"default_left":[0,0,0,0,0,0,0,0,0,0,0,0,0,0,0,0,0,0,0,0,0,0,0,0,0,0,0,0,0,0,0,0,0,0,0,0,0,0,0,0,0,0,0,0,0,0,0],"id":36,"left_children":[1,3,5,7,9,-1,-1,11,13,15,17,19,-1,21,23,25,-1,27,29,31,33,-1,-1,35,37,39,41,-1,-1,43,45,-1,-1,-1,-1,-1,-1,-1,-1,-1,-1,-1,-1,-1,-1,-1,-1],"loss_changes":[1.5311873E4,1.7162592E3,2.9258398E2,4.3104004E2,4.0000208E2,0E0,0E0,2.9544894E2,4.697251E2,1.03751526E2,3.6631674E2,9.759393E1,0E0,4.3295874E2,2.0716223E2,1.20900085E2,0E0,1.5579607E2,3.2401648E2,7.341489E1,9.026695E1,0E0,0E0,9.641563E1,1.2952759E1,8.971414E1,2.9775552E2,0E0,0E0,1.4493091E2,5.5116043E1,0E0,0E0,0E0,0E0,0E0,0E0,0E0,0E0,0E0,0E0,0E0,0E0,0E0,0E0,0E0,0E0],"parents":[2147483647,0,0,1,1,2,2,3,3,4,4,7,7,8,8,9,9,10,10,11,11,13,13,14,14,15,15,17,17,18,18,19,19,20,20,23,23,24,24,25,25,26,26,29,29,30,30],"right_children":[2,4,6,8,10,-1,-1,12,14,16,18,20,-1,22,24,26,-1,28,30,32,34,-1,-1,36,38,40,42,-1,-1,44,46,-1,-1,-1,-1,-1,-1,-1,-1,-1,-1,-1,-1,-1,-1,-1,-1],"split_conditions":[6.4E4,5E1,2.5E1,2E1,1.26E2,2.1822572E0,8.686029E0,4E1,2.6E1,1.2E1,5.7E1,2.9E1,1.2674721E0,3.8E1,3.5E2,4.7E1,-7.4443895E-1,3.2E1,8.4E1,2E0,3E1,2.0680344E0,2.3525696E-1,4.8E1,2.9E1,4.5E1,4E0,-7.7794546E-1,2.66539E-1,8E3,2.4E1,-4.15716E-1,2.9095528E-1,-9.469719E-1,1.1709366E-1,3.6664003E-1,-3.5437623E-1,5.517502E-1,1.4036438E0,-1.7935519E-1,-6.2552136E-1,1.1956284E0,-5.6232717E-2,1.5941807E0,1.17702484E-1,-3.559227E-1,2.909771E-1],"split_indices":[2,0,0,5,6,0,0,0,5,4,0,0,0,0,6,6,0,3,0,4,0,0,0,3,0,6,5,0,0,1,5,0,0,0,0,0,0,0,0,0,0,0,0,0,0,0,0],"split_type":[0,0,0,0,0,0,0,0,0,0,0,0,0,0,0,0,0,0,0,0,0,0,0,0,0,0,0,0,0,0,0,0,0,0,0,0,0,0,0,0,0,0,0,0,0,0,0],"sum_hessian":[1.67E2,1.65E2,2E0,2.6E1,1.39E2,1E0,1E0,9E0,1.7E1,1.27E2,1.2E1,8E0,1E0,7E0,1E1,1.25E2,2E0,4E0,8E0,6E0,2E0,5E0,2E0,6E0,4E0,8.7E1,3.8E1,2E0,2E0,4E0,4E0,1E0,5E0,1E0,1E0,4E0,2E0,3E0,1E0,8.3E1,4E0,1E0,3.7E1,3E0,1E0,1E0,3E0],"tree_param":{"num_deleted":"0","num_feature":"7","num_nodes":"47","size_leaf_vector":"1"}},{"base_weights":[1.5846192E0,3.597505E-1,6.883248E1,7.0657115E0,-9.361116E-1,2.0731447E0,8.251727E0,1.6418225E0,9.686443E0,-1.4215698E0,3.9157927E0,-8.5152733E-1,1.2040986E0,1.50411415E1,4.9115324E0,-1.2787035E0,-6.9480973E-1,-2.8638763E0,7.247187E0,1.1577055E0,-5.255895E0,1.8956991E0,2.1957295E-1,9.918431E-1,9.416791E0,-2.2593672E0,-3.8141218E-1,-7.260824E-1,2.4876964E-1,1.2244207E1,8.007294E-1,-3.9493027E-1,2.6670906E-1,-8.996231E-1,1.1123886E-1,3.3730897E-1,-3.3075154E-1,5.1036835E-1,1.333461E0,-5.496459E-1,-1.7281199E-1,8.591992E-2,-2.0366684E-1,1.4746174E0,1.1181717E-1,-3.381264E-1,2.6915437E-1],"categories":[],"categories_nodes":[],"categories_segments":[],"categories_sizes":[],"default_left":[0,0,0,0,0,0,0,0,0,0,0,0,0,0,0,0,0,0,0,0,0,0,0,0,0,0,0,0,0,0,0,0,0,0,0,0,0,0,0,0,0,0,0,0,0,0,0],"id":37,"left_children":[1,3,5,7,9,-1,-1,11,13,15,17,19,-1,21,23,25,-1,27,29,31,33,-1,-1,35,37,39,41,-1,-1,43,45,-1,-1,-1,-1,-1,-1,-1,-1,-1,-1,-1,-1,-1,-1,-1,-1],"loss_changes":[1.3813363E4,1.4491545E3,2.6405566E2,3.6788965E2,3.3532205E2,0E0,0E0,2.695407E2,3.8635278E2,9.2178406E1,3.1436987E2,8.5729385E1,0E0,3.60781E2,1.8491135E2,1.1001077E2,0E0,1.3571564E2,2.8011343E2,6.449225E1,8.146587E1,0E0,0E0,8.282137E1,1.6434265E1,9.368323E1,1.393364E2,0E0,0E0,1.22696045E2,4.8637676E1,0E0,0E0,0E0,0E0,0E0,0E0,0E0,0E0,0E0,0E0,0E0,0E0,0E0,0E0,0E0,0E0],"parents":[2147483647,0,0,1,1,2,2,3,3,4,4,7,7,8,8,9,9,10,10,11,11,13,13,14,14,15,15,17,17,18,18,19,19,20,20,23,23,24,24,25,25,26,26,29,29,30,30],"right_children":[2,4,6,8,10,-1,-1,12,14,16,18,20,-1,22,24,26,-1,28,30,32,34,-1,-1,36,38,40,42,-1,-1,44,46,-1,-1,-1,-1,-1,-1,-1,-1,-1,-1,-1,-1,-1,-1,-1,-1],"split_conditions":[6.4E4,5E1,2.5E1,2E1,1.26E2,2.0731447E0,8.251727E0,4E1,2.6E1,1.2E1,5.7E1,2.9E1,1.2040986E0,3.8E1,3.5E2,4E0,-6.9480973E-1,3.2E1,8.4E1,2E0,3E1,1.8956991E0,2.1957295E-1,4.8E1,2.9E1,1.05E2,2E0,-7.260824E-1,2.4876964E-1,8E3,2.4E1,-3.9493027E-1,2.6670906E-1,-8.996231E-1,1.1123886E-1,3.3730897E-1,-3.3075154E-1,5.1036835E-1,1.333461E0,-5.496459E-1,-1.7281199E-1,8.591992E-2,-2.0366684E-1,1.4746174E0,1.1181717E-1,-3.381264E-1,2.6915437E-1],"split_indices":[2,0,0,5,6,0,0,0,5,4,0,0,0,0,6,3,0,3,0,4,0,0,0,3,0,0,4,0,0,1,5,0,0,0,0,0,0,0,0,0,0,0,0,0,0,0,0],"split_type":[0,0,0,0,0,0,0,0,0,0,0,0,0,0,0,0,0,0,0,0,0,0,0,0,0,0,0,0,0,0,0,0,0,0,0,0,0,0,0,0,0,0,0,0,0,0,0],"sum_hessian":[1.67E2,1.65E2,2E0,2.6E1,1.39E2,1E0,1E0,9E0,1.7E1,1.27E2,1.2E1,8E0,1E0,7E0,1E1,1.25E2,2E0,4E0,8E0,6E0,2E0,5E0,2E0,6E0,4E0,5.9E1,6.6E1,2E0,2E0,4E0,4E0,1E0,5E0,1E0,1E0,4E0,2E0,3E0,1E0,7E0,5.2E1,3.8E1,2.8E1,3E0,1E0,1E0,3E0],"tree_param":{"num_deleted":"0","num_feature":"7","num_nodes":"47","size_leaf_vector":"1"}},{"base_weights":[1.5099857E0,3.464156E-1,6.539087E1,-8.223436E-1,6.671363E0,1.9694885E0,7.839142E0,3.1919036E0,-1.2899921E0,-7.8161365E-1,8.483101E0,1.3648161E0,7.8751907E0,-3.3183632E0,-9.245881E-1,-3.0742595E-1,1.1332741E0,9.592593E0,-1.3713862E0,7.2290343E-1,-5.309311E-1,2.874298E-1,1.1438935E0,-4.035826E0,-1.51188E0,-2.3631413E0,4.845622E-2,1.6709647E-1,-2.398987E-2,6.605775E0,1.3769172E1,-2.6805305E-1,6.2345125E-2,-2.2554867E-1,2.619774E-1,-4.4915888E-1,-1.8874626E-1,2.3067236E-1,-2.532768E-1,-8.384937E-2,-5.570351E-1,-1.4518999E-1,2.0127693E-1,8.8136226E-1,3.4542453E-1,1.9452002E0,7.6056397E-1],"categories":[],"categories_nodes":[],"categories_segments":[],"categories_sizes":[],"default_left":[0,0,0,0,0,0,0,0,0,0,0,0,0,0,0,0,0,0,0,0,0,0,0,0,0,0,0,0,0,0,0,0,0,0,0,0,0,0,0,0,0,0,0,0,0,0,0],"id":38,"left_children":[1,3,5,7,9,-1,-1,11,13,15,17,19,21,23,25,-1,27,29,31,-1,33,-1,-1,35,37,39,41,-1,-1,43,45,-1,-1,-1,-1,-1,-1,-1,-1,-1,-1,-1,-1,-1,-1,-1,-1],"loss_changes":[1.2464769E4,1.2326146E3,2.383086E2,2.6881076E2,3.5770435E2,0E0,0E0,1.17603455E2,9.106111E1,2.9824932E1,2.427583E2,1.3724301E2,3.840866E1,1.8523941E1,1.5269008E2,0E0,3.35423E0,1.4606287E2,9.50577E0,0E0,6.0244522E1,0E0,0E0,4.2511597E0,3.3130962E1,2.1048329E2,1.974355E2,0E0,0E0,6.0010864E1,9.7239136E1,0E0,0E0,0E0,0E0,0E0,0E0,0E0,0E0,0E0,0E0,0E0,0E0,0E0,0E0,0E0,0E0],"parents":[2147483647,0,0,1,1,2,2,3,3,4,4,7,7,8,8,9,9,10,10,11,11,12,12,13,13,14,14,16,16,17,17,18,18,20,20,23,